digraph Tree {
node [shape=box, style="filled, rounded", color="black", fontname=helvetica] ;
edge [fontname=helvetica] ;
0 [label="meters <= 124.5\ngini = 0.468\nsamples = 1290\nvalue = [28, 59, 231, 1, 52, 9, 1, 1, 908]", fillcolor="#ee809c"] ;
1 [label="rooms <= 0.5\ngini = 0.236\nsamples = 730\nvalue = [14, 4, 39, 0, 27, 9, 1, 0, 636]", fillcolor="#e95479"] ;
0 -> 1 [labeldistance=2.5, labelangle=45, headlabel="True"] ;
2 [label="meters <= 27.0\ngini = 0.314\nsamples = 11\nvalue = [1, 0, 1, 0, 0, 9, 0, 0, 0]", fillcolor="#6183ea"] ;
1 -> 2 ;
3 [label="gini = 0.0\nsamples = 1\nvalue = [1, 0, 0, 0, 0, 0, 0, 0, 0]", fillcolor="#e58139"] ;
2 -> 3 ;
4 [label="year <= 1960.0\ngini = 0.18\nsamples = 10\nvalue = [0, 0, 1, 0, 0, 9, 0, 0, 0]", fillcolor="#4f75e8"] ;
2 -> 4 ;
5 [label="gini = 0.0\nsamples = 1\nvalue = [0, 0, 1, 0, 0, 0, 0, 0, 0]", fillcolor="#64e539"] ;
4 -> 5 ;
6 [label="gini = 0.0\nsamples = 9\nvalue = [0, 0, 0, 0, 0, 9, 0, 0, 0]", fillcolor="#3964e5"] ;
4 -> 6 ;
7 [label="price <= 664.9\ngini = 0.213\nsamples = 719\nvalue = [13, 4, 38, 0, 27, 0, 1, 0, 636]", fillcolor="#e85177"] ;
1 -> 7 ;
8 [label="year <= 1958.5\ngini = 0.207\nsamples = 716\nvalue = [12, 3, 38, 0, 26, 0, 1, 0, 636]", fillcolor="#e85076"] ;
7 -> 8 ;
9 [label="zipcode <= 41013.5\ngini = 0.396\nsamples = 46\nvalue = [0, 1, 11, 0, 0, 0, 0, 0, 34]", fillcolor="#ee7d99"] ;
8 -> 9 ;
10 [label="meters <= 96.5\ngini = 0.283\nsamples = 41\nvalue = [0, 0, 7, 0, 0, 0, 0, 0, 34]", fillcolor="#ea6284"] ;
9 -> 10 ;
11 [label="meters <= 53.5\ngini = 0.157\nsamples = 35\nvalue = [0, 0, 3, 0, 0, 0, 0, 0, 32]", fillcolor="#e74c73"] ;
10 -> 11 ;
12 [label="zipcode <= 41004.0\ngini = 0.375\nsamples = 4\nvalue = [0, 0, 3, 0, 0, 0, 0, 0, 1]", fillcolor="#98ee7b"] ;
11 -> 12 ;
13 [label="gini = 0.0\nsamples = 1\nvalue = [0, 0, 0, 0, 0, 0, 0, 0, 1]", fillcolor="#e53964"] ;
12 -> 13 ;
14 [label="gini = 0.0\nsamples = 3\nvalue = [0, 0, 3, 0, 0, 0, 0, 0, 0]", fillcolor="#64e539"] ;
12 -> 14 ;
15 [label="gini = 0.0\nsamples = 31\nvalue = [0, 0, 0, 0, 0, 0, 0, 0, 31]", fillcolor="#e53964"] ;
11 -> 15 ;
16 [label="meters <= 106.5\ngini = 0.444\nsamples = 6\nvalue = [0, 0, 4, 0, 0, 0, 0, 0, 2]", fillcolor="#b2f29c"] ;
10 -> 16 ;
17 [label="meters <= 102.0\ngini = 0.32\nsamples = 5\nvalue = [0, 0, 4, 0, 0, 0, 0, 0, 1]", fillcolor="#8bec6a"] ;
16 -> 17 ;
18 [label="price <= 255.0\ngini = 0.5\nsamples = 2\nvalue = [0, 0, 1, 0, 0, 0, 0, 0, 1]", fillcolor="#ffffff"] ;
17 -> 18 ;
19 [label="gini = 0.0\nsamples = 1\nvalue = [0, 0, 0, 0, 0, 0, 0, 0, 1]", fillcolor="#e53964"] ;
18 -> 19 ;
20 [label="gini = 0.0\nsamples = 1\nvalue = [0, 0, 1, 0, 0, 0, 0, 0, 0]", fillcolor="#64e539"] ;
18 -> 20 ;
21 [label="gini = 0.0\nsamples = 3\nvalue = [0, 0, 3, 0, 0, 0, 0, 0, 0]", fillcolor="#64e539"] ;
17 -> 21 ;
22 [label="gini = 0.0\nsamples = 1\nvalue = [0, 0, 0, 0, 0, 0, 0, 0, 1]", fillcolor="#e53964"] ;
16 -> 22 ;
23 [label="price <= 99.75\ngini = 0.32\nsamples = 5\nvalue = [0, 1, 4, 0, 0, 0, 0, 0, 0]", fillcolor="#8bec6a"] ;
9 -> 23 ;
24 [label="gini = 0.0\nsamples = 4\nvalue = [0, 0, 4, 0, 0, 0, 0, 0, 0]", fillcolor="#64e539"] ;
23 -> 24 ;
25 [label="gini = 0.0\nsamples = 1\nvalue = [0, 1, 0, 0, 0, 0, 0, 0, 0]", fillcolor="#d7e539"] ;
23 -> 25 ;
26 [label="price <= 186.95\ngini = 0.189\nsamples = 670\nvalue = [12, 2, 27, 0, 26, 0, 1, 0, 602]", fillcolor="#e84e74"] ;
8 -> 26 ;
27 [label="meters <= 119.0\ngini = 0.108\nsamples = 372\nvalue = [1, 2, 17, 0, 1, 0, 0, 0, 351]", fillcolor="#e7456d"] ;
26 -> 27 ;
28 [label="price <= 31.995\ngini = 0.081\nsamples = 359\nvalue = [1, 2, 11, 0, 1, 0, 0, 0, 344]", fillcolor="#e6426b"] ;
27 -> 28 ;
29 [label="gini = 0.0\nsamples = 1\nvalue = [0, 0, 1, 0, 0, 0, 0, 0, 0]", fillcolor="#64e539"] ;
28 -> 29 ;
30 [label="price <= 100.6\ngini = 0.076\nsamples = 358\nvalue = [1, 2, 10, 0, 1, 0, 0, 0, 344]", fillcolor="#e6416a"] ;
28 -> 30 ;
31 [label="zipcode <= 41015.5\ngini = 0.152\nsamples = 148\nvalue = [1, 2, 9, 0, 0, 0, 0, 0, 136]", fillcolor="#e74a71"] ;
30 -> 31 ;
32 [label="price <= 99.995\ngini = 0.115\nsamples = 116\nvalue = [1, 2, 4, 0, 0, 0, 0, 0, 109]", fillcolor="#e7456e"] ;
31 -> 32 ;
33 [label="zipcode <= 41006.5\ngini = 0.101\nsamples = 114\nvalue = [1, 2, 3, 0, 0, 0, 0, 0, 108]", fillcolor="#e6446c"] ;
32 -> 33 ;
34 [label="terrace <= 0.5\ngini = 0.202\nsamples = 36\nvalue = [0, 1, 3, 0, 0, 0, 0, 0, 32]", fillcolor="#e85177"] ;
33 -> 34 ;
35 [label="price <= 93.525\ngini = 0.077\nsamples = 25\nvalue = [0, 0, 1, 0, 0, 0, 0, 0, 24]", fillcolor="#e6416a"] ;
34 -> 35 ;
36 [label="gini = 0.0\nsamples = 23\nvalue = [0, 0, 0, 0, 0, 0, 0, 0, 23]", fillcolor="#e53964"] ;
35 -> 36 ;
37 [label="meters <= 81.5\ngini = 0.5\nsamples = 2\nvalue = [0, 0, 1, 0, 0, 0, 0, 0, 1]", fillcolor="#ffffff"] ;
35 -> 37 ;
38 [label="gini = 0.0\nsamples = 1\nvalue = [0, 0, 0, 0, 0, 0, 0, 0, 1]", fillcolor="#e53964"] ;
37 -> 38 ;
39 [label="gini = 0.0\nsamples = 1\nvalue = [0, 0, 1, 0, 0, 0, 0, 0, 0]", fillcolor="#64e539"] ;
37 -> 39 ;
40 [label="price <= 70.45\ngini = 0.43\nsamples = 11\nvalue = [0, 1, 2, 0, 0, 0, 0, 0, 8]", fillcolor="#ee7b98"] ;
34 -> 40 ;
41 [label="price <= 68.5\ngini = 0.5\nsamples = 4\nvalue = [0, 0, 2, 0, 0, 0, 0, 0, 2]", fillcolor="#ffffff"] ;
40 -> 41 ;
42 [label="gini = 0.0\nsamples = 2\nvalue = [0, 0, 0, 0, 0, 0, 0, 0, 2]", fillcolor="#e53964"] ;
41 -> 42 ;
43 [label="gini = 0.0\nsamples = 2\nvalue = [0, 0, 2, 0, 0, 0, 0, 0, 0]", fillcolor="#64e539"] ;
41 -> 43 ;
44 [label="meters <= 69.5\ngini = 0.245\nsamples = 7\nvalue = [0, 1, 0, 0, 0, 0, 0, 0, 6]", fillcolor="#e95a7e"] ;
40 -> 44 ;
45 [label="gini = 0.0\nsamples = 1\nvalue = [0, 1, 0, 0, 0, 0, 0, 0, 0]", fillcolor="#d7e539"] ;
44 -> 45 ;
46 [label="gini = 0.0\nsamples = 6\nvalue = [0, 0, 0, 0, 0, 0, 0, 0, 6]", fillcolor="#e53964"] ;
44 -> 46 ;
47 [label="meters <= 50.5\ngini = 0.05\nsamples = 78\nvalue = [1, 1, 0, 0, 0, 0, 0, 0, 76]", fillcolor="#e63e68"] ;
33 -> 47 ;
48 [label="year <= 1962.5\ngini = 0.375\nsamples = 4\nvalue = [0, 1, 0, 0, 0, 0, 0, 0, 3]", fillcolor="#ee7b98"] ;
47 -> 48 ;
49 [label="gini = 0.0\nsamples = 1\nvalue = [0, 1, 0, 0, 0, 0, 0, 0, 0]", fillcolor="#d7e539"] ;
48 -> 49 ;
50 [label="gini = 0.0\nsamples = 3\nvalue = [0, 0, 0, 0, 0, 0, 0, 0, 3]", fillcolor="#e53964"] ;
48 -> 50 ;
51 [label="garage <= 0.5\ngini = 0.027\nsamples = 74\nvalue = [1, 0, 0, 0, 0, 0, 0, 0, 73]", fillcolor="#e53c66"] ;
47 -> 51 ;
52 [label="gini = 0.0\nsamples = 68\nvalue = [0, 0, 0, 0, 0, 0, 0, 0, 68]", fillcolor="#e53964"] ;
51 -> 52 ;
53 [label="zipcode <= 41013.5\ngini = 0.278\nsamples = 6\nvalue = [1, 0, 0, 0, 0, 0, 0, 0, 5]", fillcolor="#ea6183"] ;
51 -> 53 ;
54 [label="gini = 0.0\nsamples = 5\nvalue = [0, 0, 0, 0, 0, 0, 0, 0, 5]", fillcolor="#e53964"] ;
53 -> 54 ;
55 [label="gini = 0.0\nsamples = 1\nvalue = [1, 0, 0, 0, 0, 0, 0, 0, 0]", fillcolor="#e58139"] ;
53 -> 55 ;
56 [label="zipcode <= 41010.0\ngini = 0.5\nsamples = 2\nvalue = [0, 0, 1, 0, 0, 0, 0, 0, 1]", fillcolor="#ffffff"] ;
32 -> 56 ;
57 [label="gini = 0.0\nsamples = 1\nvalue = [0, 0, 1, 0, 0, 0, 0, 0, 0]", fillcolor="#64e539"] ;
56 -> 57 ;
58 [label="gini = 0.0\nsamples = 1\nvalue = [0, 0, 0, 0, 0, 0, 0, 0, 1]", fillcolor="#e53964"] ;
56 -> 58 ;
59 [label="meters <= 49.0\ngini = 0.264\nsamples = 32\nvalue = [0, 0, 5, 0, 0, 0, 0, 0, 27]", fillcolor="#ea5e81"] ;
31 -> 59 ;
60 [label="gini = 0.0\nsamples = 1\nvalue = [0, 0, 1, 0, 0, 0, 0, 0, 0]", fillcolor="#64e539"] ;
59 -> 60 ;
61 [label="year <= 1979.5\ngini = 0.225\nsamples = 31\nvalue = [0, 0, 4, 0, 0, 0, 0, 0, 27]", fillcolor="#e9567b"] ;
59 -> 61 ;
62 [label="meters <= 64.5\ngini = 0.147\nsamples = 25\nvalue = [0, 0, 2, 0, 0, 0, 0, 0, 23]", fillcolor="#e74a71"] ;
61 -> 62 ;
63 [label="price <= 42.5\ngini = 0.5\nsamples = 2\nvalue = [0, 0, 1, 0, 0, 0, 0, 0, 1]", fillcolor="#ffffff"] ;
62 -> 63 ;
64 [label="gini = 0.0\nsamples = 1\nvalue = [0, 0, 0, 0, 0, 0, 0, 0, 1]", fillcolor="#e53964"] ;
63 -> 64 ;
65 [label="gini = 0.0\nsamples = 1\nvalue = [0, 0, 1, 0, 0, 0, 0, 0, 0]", fillcolor="#64e539"] ;
63 -> 65 ;
66 [label="rooms <= 2.5\ngini = 0.083\nsamples = 23\nvalue = [0, 0, 1, 0, 0, 0, 0, 0, 22]", fillcolor="#e6426b"] ;
62 -> 66 ;
67 [label="meters <= 80.5\ngini = 0.444\nsamples = 3\nvalue = [0, 0, 1, 0, 0, 0, 0, 0, 2]", fillcolor="#f29cb2"] ;
66 -> 67 ;
68 [label="gini = 0.0\nsamples = 1\nvalue = [0, 0, 1, 0, 0, 0, 0, 0, 0]", fillcolor="#64e539"] ;
67 -> 68 ;
69 [label="gini = 0.0\nsamples = 2\nvalue = [0, 0, 0, 0, 0, 0, 0, 0, 2]", fillcolor="#e53964"] ;
67 -> 69 ;
70 [label="gini = 0.0\nsamples = 20\nvalue = [0, 0, 0, 0, 0, 0, 0, 0, 20]", fillcolor="#e53964"] ;
66 -> 70 ;
71 [label="meters <= 86.5\ngini = 0.444\nsamples = 6\nvalue = [0, 0, 2, 0, 0, 0, 0, 0, 4]", fillcolor="#f29cb2"] ;
61 -> 71 ;
72 [label="gini = 0.0\nsamples = 3\nvalue = [0, 0, 0, 0, 0, 0, 0, 0, 3]", fillcolor="#e53964"] ;
71 -> 72 ;
73 [label="terrace <= 0.5\ngini = 0.444\nsamples = 3\nvalue = [0, 0, 2, 0, 0, 0, 0, 0, 1]", fillcolor="#b2f29c"] ;
71 -> 73 ;
74 [label="gini = 0.0\nsamples = 2\nvalue = [0, 0, 2, 0, 0, 0, 0, 0, 0]", fillcolor="#64e539"] ;
73 -> 74 ;
75 [label="gini = 0.0\nsamples = 1\nvalue = [0, 0, 0, 0, 0, 0, 0, 0, 1]", fillcolor="#e53964"] ;
73 -> 75 ;
76 [label="year <= 2019.5\ngini = 0.019\nsamples = 210\nvalue = [0, 0, 1, 0, 1, 0, 0, 0, 208]", fillcolor="#e53b65"] ;
30 -> 76 ;
77 [label="zipcode <= 41005.5\ngini = 0.01\nsamples = 205\nvalue = [0, 0, 1, 0, 0, 0, 0, 0, 204]", fillcolor="#e53a65"] ;
76 -> 77 ;
78 [label="bathrooms <= 1.5\ngini = 0.069\nsamples = 28\nvalue = [0, 0, 1, 0, 0, 0, 0, 0, 27]", fillcolor="#e6406a"] ;
77 -> 78 ;
79 [label="gini = 0.0\nsamples = 25\nvalue = [0, 0, 0, 0, 0, 0, 0, 0, 25]", fillcolor="#e53964"] ;
78 -> 79 ;
80 [label="price <= 164.5\ngini = 0.444\nsamples = 3\nvalue = [0, 0, 1, 0, 0, 0, 0, 0, 2]", fillcolor="#f29cb2"] ;
78 -> 80 ;
81 [label="gini = 0.0\nsamples = 1\nvalue = [0, 0, 1, 0, 0, 0, 0, 0, 0]", fillcolor="#64e539"] ;
80 -> 81 ;
82 [label="gini = 0.0\nsamples = 2\nvalue = [0, 0, 0, 0, 0, 0, 0, 0, 2]", fillcolor="#e53964"] ;
80 -> 82 ;
83 [label="gini = 0.0\nsamples = 177\nvalue = [0, 0, 0, 0, 0, 0, 0, 0, 177]", fillcolor="#e53964"] ;
77 -> 83 ;
84 [label="price <= 158.425\ngini = 0.32\nsamples = 5\nvalue = [0, 0, 0, 0, 1, 0, 0, 0, 4]", fillcolor="#ec6a8b"] ;
76 -> 84 ;
85 [label="gini = 0.0\nsamples = 4\nvalue = [0, 0, 0, 0, 0, 0, 0, 0, 4]", fillcolor="#e53964"] ;
84 -> 85 ;
86 [label="gini = 0.0\nsamples = 1\nvalue = [0, 0, 0, 0, 1, 0, 0, 0, 0]", fillcolor="#39d7e5"] ;
84 -> 86 ;
87 [label="zipcode <= 41011.5\ngini = 0.497\nsamples = 13\nvalue = [0, 0, 6, 0, 0, 0, 0, 0, 7]", fillcolor="#fbe3e9"] ;
27 -> 87 ;
88 [label="gini = 0.0\nsamples = 4\nvalue = [0, 0, 0, 0, 0, 0, 0, 0, 4]", fillcolor="#e53964"] ;
87 -> 88 ;
89 [label="zipcode <= 41017.5\ngini = 0.444\nsamples = 9\nvalue = [0, 0, 6, 0, 0, 0, 0, 0, 3]", fillcolor="#b2f29c"] ;
87 -> 89 ;
90 [label="price <= 93.5\ngini = 0.245\nsamples = 7\nvalue = [0, 0, 6, 0, 0, 0, 0, 0, 1]", fillcolor="#7ee95a"] ;
89 -> 90 ;
91 [label="meters <= 121.0\ngini = 0.5\nsamples = 2\nvalue = [0, 0, 1, 0, 0, 0, 0, 0, 1]", fillcolor="#ffffff"] ;
90 -> 91 ;
92 [label="gini = 0.0\nsamples = 1\nvalue = [0, 0, 0, 0, 0, 0, 0, 0, 1]", fillcolor="#e53964"] ;
91 -> 92 ;
93 [label="gini = 0.0\nsamples = 1\nvalue = [0, 0, 1, 0, 0, 0, 0, 0, 0]", fillcolor="#64e539"] ;
91 -> 93 ;
94 [label="gini = 0.0\nsamples = 5\nvalue = [0, 0, 5, 0, 0, 0, 0, 0, 0]", fillcolor="#64e539"] ;
90 -> 94 ;
95 [label="gini = 0.0\nsamples = 2\nvalue = [0, 0, 0, 0, 0, 0, 0, 0, 2]", fillcolor="#e53964"] ;
89 -> 95 ;
96 [label="price <= 189.65\ngini = 0.281\nsamples = 298\nvalue = [11, 0, 10, 0, 25, 0, 1, 0, 251]", fillcolor="#e95b7f"] ;
26 -> 96 ;
97 [label="zipcode <= 41003.5\ngini = 0.625\nsamples = 4\nvalue = [0, 0, 1, 0, 2, 0, 0, 0, 1]", fillcolor="#bdf2f6"] ;
96 -> 97 ;
98 [label="gini = 0.0\nsamples = 2\nvalue = [0, 0, 0, 0, 2, 0, 0, 0, 0]", fillcolor="#39d7e5"] ;
97 -> 98 ;
99 [label="price <= 188.0\ngini = 0.5\nsamples = 2\nvalue = [0, 0, 1, 0, 0, 0, 0, 0, 1]", fillcolor="#ffffff"] ;
97 -> 99 ;
100 [label="gini = 0.0\nsamples = 1\nvalue = [0, 0, 0, 0, 0, 0, 0, 0, 1]", fillcolor="#e53964"] ;
99 -> 100 ;
101 [label="gini = 0.0\nsamples = 1\nvalue = [0, 0, 1, 0, 0, 0, 0, 0, 0]", fillcolor="#64e539"] ;
99 -> 101 ;
102 [label="rooms <= 2.5\ngini = 0.268\nsamples = 294\nvalue = [11, 0, 9, 0, 23, 0, 1, 0, 250]", fillcolor="#e9597d"] ;
96 -> 102 ;
103 [label="garage <= 0.5\ngini = 0.347\nsamples = 126\nvalue = [7, 0, 1, 0, 18, 0, 0, 0, 100]", fillcolor="#eb6989"] ;
102 -> 103 ;
104 [label="terrace <= 0.5\ngini = 0.284\nsamples = 105\nvalue = [5, 0, 1, 0, 11, 0, 0, 0, 88]", fillcolor="#ea5d80"] ;
103 -> 104 ;
105 [label="price <= 224.0\ngini = 0.203\nsamples = 71\nvalue = [0, 0, 1, 0, 7, 0, 0, 0, 63]", fillcolor="#e85277"] ;
104 -> 105 ;
106 [label="gini = 0.0\nsamples = 21\nvalue = [0, 0, 0, 0, 0, 0, 0, 0, 21]", fillcolor="#e53964"] ;
105 -> 106 ;
107 [label="price <= 237.5\ngini = 0.274\nsamples = 50\nvalue = [0, 0, 1, 0, 7, 0, 0, 0, 42]", fillcolor="#ea5e81"] ;
105 -> 107 ;
108 [label="year <= 1966.0\ngini = 0.375\nsamples = 4\nvalue = [0, 0, 0, 0, 3, 0, 0, 0, 1]", fillcolor="#7be4ee"] ;
107 -> 108 ;
109 [label="gini = 0.0\nsamples = 3\nvalue = [0, 0, 0, 0, 3, 0, 0, 0, 0]", fillcolor="#39d7e5"] ;
108 -> 109 ;
110 [label="gini = 0.0\nsamples = 1\nvalue = [0, 0, 0, 0, 0, 0, 0, 0, 1]", fillcolor="#e53964"] ;
108 -> 110 ;
111 [label="meters <= 117.5\ngini = 0.198\nsamples = 46\nvalue = [0, 0, 1, 0, 4, 0, 0, 0, 41]", fillcolor="#e85176"] ;
107 -> 111 ;
112 [label="price <= 307.0\ngini = 0.168\nsamples = 44\nvalue = [0, 0, 1, 0, 3, 0, 0, 0, 40]", fillcolor="#e84c73"] ;
111 -> 112 ;
113 [label="zipcode <= 41008.0\ngini = 0.116\nsamples = 33\nvalue = [0, 0, 1, 0, 1, 0, 0, 0, 31]", fillcolor="#e7456e"] ;
112 -> 113 ;
114 [label="gini = 0.0\nsamples = 27\nvalue = [0, 0, 0, 0, 0, 0, 0, 0, 27]", fillcolor="#e53964"] ;
113 -> 114 ;
115 [label="meters <= 96.5\ngini = 0.5\nsamples = 6\nvalue = [0, 0, 1, 0, 1, 0, 0, 0, 4]", fillcolor="#ef88a2"] ;
113 -> 115 ;
116 [label="zipcode <= 41009.5\ngini = 0.667\nsamples = 3\nvalue = [0, 0, 1, 0, 1, 0, 0, 0, 1]", fillcolor="#ffffff"] ;
115 -> 116 ;
117 [label="gini = 0.0\nsamples = 1\nvalue = [0, 0, 0, 0, 1, 0, 0, 0, 0]", fillcolor="#39d7e5"] ;
116 -> 117 ;
118 [label="year <= 1976.0\ngini = 0.5\nsamples = 2\nvalue = [0, 0, 1, 0, 0, 0, 0, 0, 1]", fillcolor="#ffffff"] ;
116 -> 118 ;
119 [label="gini = 0.0\nsamples = 1\nvalue = [0, 0, 1, 0, 0, 0, 0, 0, 0]", fillcolor="#64e539"] ;
118 -> 119 ;
120 [label="gini = 0.0\nsamples = 1\nvalue = [0, 0, 0, 0, 0, 0, 0, 0, 1]", fillcolor="#e53964"] ;
118 -> 120 ;
121 [label="gini = 0.0\nsamples = 3\nvalue = [0, 0, 0, 0, 0, 0, 0, 0, 3]", fillcolor="#e53964"] ;
115 -> 121 ;
122 [label="price <= 319.5\ngini = 0.298\nsamples = 11\nvalue = [0, 0, 0, 0, 2, 0, 0, 0, 9]", fillcolor="#eb6586"] ;
112 -> 122 ;
123 [label="gini = 0.0\nsamples = 1\nvalue = [0, 0, 0, 0, 1, 0, 0, 0, 0]", fillcolor="#39d7e5"] ;
122 -> 123 ;
124 [label="price <= 342.5\ngini = 0.18\nsamples = 10\nvalue = [0, 0, 0, 0, 1, 0, 0, 0, 9]", fillcolor="#e84f75"] ;
122 -> 124 ;
125 [label="price <= 335.0\ngini = 0.444\nsamples = 3\nvalue = [0, 0, 0, 0, 1, 0, 0, 0, 2]", fillcolor="#f29cb2"] ;
124 -> 125 ;
126 [label="gini = 0.0\nsamples = 2\nvalue = [0, 0, 0, 0, 0, 0, 0, 0, 2]", fillcolor="#e53964"] ;
125 -> 126 ;
127 [label="gini = 0.0\nsamples = 1\nvalue = [0, 0, 0, 0, 1, 0, 0, 0, 0]", fillcolor="#39d7e5"] ;
125 -> 127 ;
128 [label="gini = 0.0\nsamples = 7\nvalue = [0, 0, 0, 0, 0, 0, 0, 0, 7]", fillcolor="#e53964"] ;
124 -> 128 ;
129 [label="year <= 1980.0\ngini = 0.5\nsamples = 2\nvalue = [0, 0, 0, 0, 1, 0, 0, 0, 1]", fillcolor="#ffffff"] ;
111 -> 129 ;
130 [label="gini = 0.0\nsamples = 1\nvalue = [0, 0, 0, 0, 0, 0, 0, 0, 1]", fillcolor="#e53964"] ;
129 -> 130 ;
131 [label="gini = 0.0\nsamples = 1\nvalue = [0, 0, 0, 0, 1, 0, 0, 0, 0]", fillcolor="#39d7e5"] ;
129 -> 131 ;
132 [label="rooms <= 1.5\ngini = 0.424\nsamples = 34\nvalue = [5, 0, 0, 0, 4, 0, 0, 0, 25]", fillcolor="#ed7694"] ;
104 -> 132 ;
133 [label="year <= 1991.0\ngini = 0.375\nsamples = 4\nvalue = [3, 0, 0, 0, 0, 0, 0, 0, 1]", fillcolor="#eeab7b"] ;
132 -> 133 ;
134 [label="gini = 0.0\nsamples = 3\nvalue = [3, 0, 0, 0, 0, 0, 0, 0, 0]", fillcolor="#e58139"] ;
133 -> 134 ;
135 [label="gini = 0.0\nsamples = 1\nvalue = [0, 0, 0, 0, 0, 0, 0, 0, 1]", fillcolor="#e53964"] ;
133 -> 135 ;
136 [label="price <= 392.0\ngini = 0.338\nsamples = 30\nvalue = [2, 0, 0, 0, 4, 0, 0, 0, 24]", fillcolor="#eb6788"] ;
132 -> 136 ;
137 [label="meters <= 73.5\ngini = 0.263\nsamples = 27\nvalue = [2, 0, 0, 0, 2, 0, 0, 0, 23]", fillcolor="#e9597d"] ;
136 -> 137 ;
138 [label="price <= 272.5\ngini = 0.625\nsamples = 4\nvalue = [1, 0, 0, 0, 1, 0, 0, 0, 2]", fillcolor="#f6bdcb"] ;
137 -> 138 ;
139 [label="meters <= 71.0\ngini = 0.444\nsamples = 3\nvalue = [0, 0, 0, 0, 1, 0, 0, 0, 2]", fillcolor="#f29cb2"] ;
138 -> 139 ;
140 [label="gini = 0.0\nsamples = 2\nvalue = [0, 0, 0, 0, 0, 0, 0, 0, 2]", fillcolor="#e53964"] ;
139 -> 140 ;
141 [label="gini = 0.0\nsamples = 1\nvalue = [0, 0, 0, 0, 1, 0, 0, 0, 0]", fillcolor="#39d7e5"] ;
139 -> 141 ;
142 [label="gini = 0.0\nsamples = 1\nvalue = [1, 0, 0, 0, 0, 0, 0, 0, 0]", fillcolor="#e58139"] ;
138 -> 142 ;
143 [label="zipcode <= 41012.0\ngini = 0.163\nsamples = 23\nvalue = [1, 0, 0, 0, 1, 0, 0, 0, 21]", fillcolor="#e74b72"] ;
137 -> 143 ;
144 [label="meters <= 98.0\ngini = 0.091\nsamples = 21\nvalue = [0, 0, 0, 0, 1, 0, 0, 0, 20]", fillcolor="#e6436c"] ;
143 -> 144 ;
145 [label="gini = 0.0\nsamples = 15\nvalue = [0, 0, 0, 0, 0, 0, 0, 0, 15]", fillcolor="#e53964"] ;
144 -> 145 ;
146 [label="year <= 1979.0\ngini = 0.278\nsamples = 6\nvalue = [0, 0, 0, 0, 1, 0, 0, 0, 5]", fillcolor="#ea6183"] ;
144 -> 146 ;
147 [label="zipcode <= 41006.0\ngini = 0.5\nsamples = 2\nvalue = [0, 0, 0, 0, 1, 0, 0, 0, 1]", fillcolor="#ffffff"] ;
146 -> 147 ;
148 [label="gini = 0.0\nsamples = 1\nvalue = [0, 0, 0, 0, 0, 0, 0, 0, 1]", fillcolor="#e53964"] ;
147 -> 148 ;
149 [label="gini = 0.0\nsamples = 1\nvalue = [0, 0, 0, 0, 1, 0, 0, 0, 0]", fillcolor="#39d7e5"] ;
147 -> 149 ;
150 [label="gini = 0.0\nsamples = 4\nvalue = [0, 0, 0, 0, 0, 0, 0, 0, 4]", fillcolor="#e53964"] ;
146 -> 150 ;
151 [label="price <= 342.0\ngini = 0.5\nsamples = 2\nvalue = [1, 0, 0, 0, 0, 0, 0, 0, 1]", fillcolor="#ffffff"] ;
143 -> 151 ;
152 [label="gini = 0.0\nsamples = 1\nvalue = [1, 0, 0, 0, 0, 0, 0, 0, 0]", fillcolor="#e58139"] ;
151 -> 152 ;
153 [label="gini = 0.0\nsamples = 1\nvalue = [0, 0, 0, 0, 0, 0, 0, 0, 1]", fillcolor="#e53964"] ;
151 -> 153 ;
154 [label="zipcode <= 41003.0\ngini = 0.444\nsamples = 3\nvalue = [0, 0, 0, 0, 2, 0, 0, 0, 1]", fillcolor="#9cebf2"] ;
136 -> 154 ;
155 [label="gini = 0.0\nsamples = 2\nvalue = [0, 0, 0, 0, 2, 0, 0, 0, 0]", fillcolor="#39d7e5"] ;
154 -> 155 ;
156 [label="gini = 0.0\nsamples = 1\nvalue = [0, 0, 0, 0, 0, 0, 0, 0, 1]", fillcolor="#e53964"] ;
154 -> 156 ;
157 [label="meters <= 83.5\ngini = 0.553\nsamples = 21\nvalue = [2, 0, 0, 0, 7, 0, 0, 0, 12]", fillcolor="#f6b8c8"] ;
103 -> 157 ;
158 [label="price <= 370.0\ngini = 0.165\nsamples = 11\nvalue = [0, 0, 0, 0, 1, 0, 0, 0, 10]", fillcolor="#e84d74"] ;
157 -> 158 ;
159 [label="gini = 0.0\nsamples = 10\nvalue = [0, 0, 0, 0, 0, 0, 0, 0, 10]", fillcolor="#e53964"] ;
158 -> 159 ;
160 [label="gini = 0.0\nsamples = 1\nvalue = [0, 0, 0, 0, 1, 0, 0, 0, 0]", fillcolor="#39d7e5"] ;
158 -> 160 ;
161 [label="zipcode <= 41009.5\ngini = 0.56\nsamples = 10\nvalue = [2, 0, 0, 0, 6, 0, 0, 0, 2]", fillcolor="#9cebf2"] ;
157 -> 161 ;
162 [label="zipcode <= 41002.0\ngini = 0.245\nsamples = 7\nvalue = [0, 0, 0, 0, 6, 0, 0, 0, 1]", fillcolor="#5adee9"] ;
161 -> 162 ;
163 [label="gini = 0.0\nsamples = 1\nvalue = [0, 0, 0, 0, 0, 0, 0, 0, 1]", fillcolor="#e53964"] ;
162 -> 163 ;
164 [label="gini = 0.0\nsamples = 6\nvalue = [0, 0, 0, 0, 6, 0, 0, 0, 0]", fillcolor="#39d7e5"] ;
162 -> 164 ;
165 [label="meters <= 100.0\ngini = 0.444\nsamples = 3\nvalue = [2, 0, 0, 0, 0, 0, 0, 0, 1]", fillcolor="#f2c09c"] ;
161 -> 165 ;
166 [label="gini = 0.0\nsamples = 1\nvalue = [0, 0, 0, 0, 0, 0, 0, 0, 1]", fillcolor="#e53964"] ;
165 -> 166 ;
167 [label="gini = 0.0\nsamples = 2\nvalue = [2, 0, 0, 0, 0, 0, 0, 0, 0]", fillcolor="#e58139"] ;
165 -> 167 ;
168 [label="bathrooms <= 2.5\ngini = 0.199\nsamples = 168\nvalue = [4, 0, 8, 0, 5, 0, 1, 0, 150]", fillcolor="#e84f75"] ;
102 -> 168 ;
169 [label="year <= 1987.5\ngini = 0.175\nsamples = 161\nvalue = [4, 0, 6, 0, 4, 0, 1, 0, 146]", fillcolor="#e84c73"] ;
168 -> 169 ;
170 [label="meters <= 120.5\ngini = 0.118\nsamples = 114\nvalue = [3, 0, 2, 0, 1, 0, 1, 0, 107]", fillcolor="#e7456e"] ;
169 -> 170 ;
171 [label="price <= 193.5\ngini = 0.092\nsamples = 105\nvalue = [3, 0, 0, 0, 1, 0, 1, 0, 100]", fillcolor="#e6436c"] ;
170 -> 171 ;
172 [label="price <= 192.5\ngini = 0.406\nsamples = 8\nvalue = [1, 0, 0, 0, 1, 0, 0, 0, 6]", fillcolor="#ec7290"] ;
171 -> 172 ;
173 [label="garage <= 0.5\ngini = 0.245\nsamples = 7\nvalue = [0, 0, 0, 0, 1, 0, 0, 0, 6]", fillcolor="#e95a7e"] ;
172 -> 173 ;
174 [label="gini = 0.0\nsamples = 5\nvalue = [0, 0, 0, 0, 0, 0, 0, 0, 5]", fillcolor="#e53964"] ;
173 -> 174 ;
175 [label="meters <= 83.5\ngini = 0.5\nsamples = 2\nvalue = [0, 0, 0, 0, 1, 0, 0, 0, 1]", fillcolor="#ffffff"] ;
173 -> 175 ;
176 [label="gini = 0.0\nsamples = 1\nvalue = [0, 0, 0, 0, 0, 0, 0, 0, 1]", fillcolor="#e53964"] ;
175 -> 176 ;
177 [label="gini = 0.0\nsamples = 1\nvalue = [0, 0, 0, 0, 1, 0, 0, 0, 0]", fillcolor="#39d7e5"] ;
175 -> 177 ;
178 [label="gini = 0.0\nsamples = 1\nvalue = [1, 0, 0, 0, 0, 0, 0, 0, 0]", fillcolor="#e58139"] ;
172 -> 178 ;
179 [label="meters <= 91.0\ngini = 0.06\nsamples = 97\nvalue = [2, 0, 0, 0, 0, 0, 1, 0, 94]", fillcolor="#e63f69"] ;
171 -> 179 ;
180 [label="price <= 305.97\ngini = 0.169\nsamples = 33\nvalue = [2, 0, 0, 0, 0, 0, 1, 0, 30]", fillcolor="#e84c73"] ;
179 -> 180 ;
181 [label="bathrooms <= 1.5\ngini = 0.064\nsamples = 30\nvalue = [0, 0, 0, 0, 0, 0, 1, 0, 29]", fillcolor="#e64069"] ;
180 -> 181 ;
182 [label="gini = 0.0\nsamples = 22\nvalue = [0, 0, 0, 0, 0, 0, 0, 0, 22]", fillcolor="#e53964"] ;
181 -> 182 ;
183 [label="price <= 217.969\ngini = 0.219\nsamples = 8\nvalue = [0, 0, 0, 0, 0, 0, 1, 0, 7]", fillcolor="#e9557a"] ;
181 -> 183 ;
184 [label="gini = 0.0\nsamples = 1\nvalue = [0, 0, 0, 0, 0, 0, 1, 0, 0]", fillcolor="#8139e5"] ;
183 -> 184 ;
185 [label="gini = 0.0\nsamples = 7\nvalue = [0, 0, 0, 0, 0, 0, 0, 0, 7]", fillcolor="#e53964"] ;
183 -> 185 ;
186 [label="terrace <= 0.5\ngini = 0.444\nsamples = 3\nvalue = [2, 0, 0, 0, 0, 0, 0, 0, 1]", fillcolor="#f2c09c"] ;
180 -> 186 ;
187 [label="gini = 0.0\nsamples = 1\nvalue = [0, 0, 0, 0, 0, 0, 0, 0, 1]", fillcolor="#e53964"] ;
186 -> 187 ;
188 [label="gini = 0.0\nsamples = 2\nvalue = [2, 0, 0, 0, 0, 0, 0, 0, 0]", fillcolor="#e58139"] ;
186 -> 188 ;
189 [label="gini = 0.0\nsamples = 64\nvalue = [0, 0, 0, 0, 0, 0, 0, 0, 64]", fillcolor="#e53964"] ;
179 -> 189 ;
190 [label="year <= 1961.0\ngini = 0.346\nsamples = 9\nvalue = [0, 0, 2, 0, 0, 0, 0, 0, 7]", fillcolor="#ec7290"] ;
170 -> 190 ;
191 [label="gini = 0.0\nsamples = 1\nvalue = [0, 0, 1, 0, 0, 0, 0, 0, 0]", fillcolor="#64e539"] ;
190 -> 191 ;
192 [label="price <= 238.25\ngini = 0.219\nsamples = 8\nvalue = [0, 0, 1, 0, 0, 0, 0, 0, 7]", fillcolor="#e9557a"] ;
190 -> 192 ;
193 [label="gini = 0.0\nsamples = 1\nvalue = [0, 0, 1, 0, 0, 0, 0, 0, 0]", fillcolor="#64e539"] ;
192 -> 193 ;
194 [label="gini = 0.0\nsamples = 7\nvalue = [0, 0, 0, 0, 0, 0, 0, 0, 7]", fillcolor="#e53964"] ;
192 -> 194 ;
195 [label="zipcode <= 41004.0\ngini = 0.3\nsamples = 47\nvalue = [1, 0, 4, 0, 3, 0, 0, 0, 39]", fillcolor="#ea5e81"] ;
169 -> 195 ;
196 [label="price <= 252.95\ngini = 0.444\nsamples = 9\nvalue = [0, 0, 0, 0, 3, 0, 0, 0, 6]", fillcolor="#f29cb2"] ;
195 -> 196 ;
197 [label="gini = 0.0\nsamples = 3\nvalue = [0, 0, 0, 0, 0, 0, 0, 0, 3]", fillcolor="#e53964"] ;
196 -> 197 ;
198 [label="price <= 284.0\ngini = 0.5\nsamples = 6\nvalue = [0, 0, 0, 0, 3, 0, 0, 0, 3]", fillcolor="#ffffff"] ;
196 -> 198 ;
199 [label="gini = 0.0\nsamples = 3\nvalue = [0, 0, 0, 0, 3, 0, 0, 0, 0]", fillcolor="#39d7e5"] ;
198 -> 199 ;
200 [label="gini = 0.0\nsamples = 3\nvalue = [0, 0, 0, 0, 0, 0, 0, 0, 3]", fillcolor="#e53964"] ;
198 -> 200 ;
201 [label="price <= 249.5\ngini = 0.234\nsamples = 38\nvalue = [1, 0, 4, 0, 0, 0, 0, 0, 33]", fillcolor="#e9567b"] ;
195 -> 201 ;
202 [label="gini = 0.0\nsamples = 16\nvalue = [0, 0, 0, 0, 0, 0, 0, 0, 16]", fillcolor="#e53964"] ;
201 -> 202 ;
203 [label="price <= 279.812\ngini = 0.368\nsamples = 22\nvalue = [1, 0, 4, 0, 0, 0, 0, 0, 17]", fillcolor="#ec708f"] ;
201 -> 203 ;
204 [label="price <= 259.208\ngini = 0.444\nsamples = 6\nvalue = [0, 0, 4, 0, 0, 0, 0, 0, 2]", fillcolor="#b2f29c"] ;
203 -> 204 ;
205 [label="meters <= 119.0\ngini = 0.444\nsamples = 3\nvalue = [0, 0, 1, 0, 0, 0, 0, 0, 2]", fillcolor="#f29cb2"] ;
204 -> 205 ;
206 [label="gini = 0.0\nsamples = 2\nvalue = [0, 0, 0, 0, 0, 0, 0, 0, 2]", fillcolor="#e53964"] ;
205 -> 206 ;
207 [label="gini = 0.0\nsamples = 1\nvalue = [0, 0, 1, 0, 0, 0, 0, 0, 0]", fillcolor="#64e539"] ;
205 -> 207 ;
208 [label="gini = 0.0\nsamples = 3\nvalue = [0, 0, 3, 0, 0, 0, 0, 0, 0]", fillcolor="#64e539"] ;
204 -> 208 ;
209 [label="price <= 304.5\ngini = 0.117\nsamples = 16\nvalue = [1, 0, 0, 0, 0, 0, 0, 0, 15]", fillcolor="#e7466e"] ;
203 -> 209 ;
210 [label="price <= 299.95\ngini = 0.32\nsamples = 5\nvalue = [1, 0, 0, 0, 0, 0, 0, 0, 4]", fillcolor="#ec6a8b"] ;
209 -> 210 ;
211 [label="gini = 0.0\nsamples = 3\nvalue = [0, 0, 0, 0, 0, 0, 0, 0, 3]", fillcolor="#e53964"] ;
210 -> 211 ;
212 [label="year <= 2000.5\ngini = 0.5\nsamples = 2\nvalue = [1, 0, 0, 0, 0, 0, 0, 0, 1]", fillcolor="#ffffff"] ;
210 -> 212 ;
213 [label="gini = 0.0\nsamples = 1\nvalue = [1, 0, 0, 0, 0, 0, 0, 0, 0]", fillcolor="#e58139"] ;
212 -> 213 ;
214 [label="gini = 0.0\nsamples = 1\nvalue = [0, 0, 0, 0, 0, 0, 0, 0, 1]", fillcolor="#e53964"] ;
212 -> 214 ;
215 [label="gini = 0.0\nsamples = 11\nvalue = [0, 0, 0, 0, 0, 0, 0, 0, 11]", fillcolor="#e53964"] ;
209 -> 215 ;
216 [label="rooms <= 4.5\ngini = 0.571\nsamples = 7\nvalue = [0, 0, 2, 0, 1, 0, 0, 0, 4]", fillcolor="#f5b0c1"] ;
168 -> 216 ;
217 [label="terrace <= 0.5\ngini = 0.625\nsamples = 4\nvalue = [0, 0, 2, 0, 1, 0, 0, 0, 1]", fillcolor="#cbf6bd"] ;
216 -> 217 ;
218 [label="price <= 295.0\ngini = 0.444\nsamples = 3\nvalue = [0, 0, 2, 0, 0, 0, 0, 0, 1]", fillcolor="#b2f29c"] ;
217 -> 218 ;
219 [label="gini = 0.0\nsamples = 1\nvalue = [0, 0, 1, 0, 0, 0, 0, 0, 0]", fillcolor="#64e539"] ;
218 -> 219 ;
220 [label="year <= 1974.5\ngini = 0.5\nsamples = 2\nvalue = [0, 0, 1, 0, 0, 0, 0, 0, 1]", fillcolor="#ffffff"] ;
218 -> 220 ;
221 [label="gini = 0.0\nsamples = 1\nvalue = [0, 0, 1, 0, 0, 0, 0, 0, 0]", fillcolor="#64e539"] ;
220 -> 221 ;
222 [label="gini = 0.0\nsamples = 1\nvalue = [0, 0, 0, 0, 0, 0, 0, 0, 1]", fillcolor="#e53964"] ;
220 -> 222 ;
223 [label="gini = 0.0\nsamples = 1\nvalue = [0, 0, 0, 0, 1, 0, 0, 0, 0]", fillcolor="#39d7e5"] ;
217 -> 223 ;
224 [label="gini = 0.0\nsamples = 3\nvalue = [0, 0, 0, 0, 0, 0, 0, 0, 3]", fillcolor="#e53964"] ;
216 -> 224 ;
225 [label="rooms <= 2.5\ngini = 0.667\nsamples = 3\nvalue = [1, 1, 0, 0, 1, 0, 0, 0, 0]", fillcolor="#ffffff"] ;
7 -> 225 ;
226 [label="gini = 0.0\nsamples = 1\nvalue = [0, 1, 0, 0, 0, 0, 0, 0, 0]", fillcolor="#d7e539"] ;
225 -> 226 ;
227 [label="gini = 0.5\nsamples = 2\nvalue = [1, 0, 0, 0, 1, 0, 0, 0, 0]", fillcolor="#ffffff"] ;
225 -> 227 ;
228 [label="price <= 159.537\ngini = 0.634\nsamples = 560\nvalue = [14, 55, 192, 1, 25, 0, 0, 1, 272]", fillcolor="#f9d4dd"] ;
0 -> 228 [labeldistance=2.5, labelangle=-45, headlabel="False"] ;
229 [label="zipcode <= 41018.0\ngini = 0.163\nsamples = 57\nvalue = [0, 0, 52, 0, 1, 0, 0, 0, 4]", fillcolor="#73e74c"] ;
228 -> 229 ;
230 [label="meters <= 126.0\ngini = 0.133\nsamples = 56\nvalue = [0, 0, 52, 0, 0, 0, 0, 0, 4]", fillcolor="#70e748"] ;
229 -> 230 ;
231 [label="gini = 0.0\nsamples = 1\nvalue = [0, 0, 0, 0, 0, 0, 0, 0, 1]", fillcolor="#e53964"] ;
230 -> 231 ;
232 [label="price <= 105.0\ngini = 0.103\nsamples = 55\nvalue = [0, 0, 52, 0, 0, 0, 0, 0, 3]", fillcolor="#6de644"] ;
230 -> 232 ;
233 [label="price <= 97.0\ngini = 0.227\nsamples = 23\nvalue = [0, 0, 20, 0, 0, 0, 0, 0, 3]", fillcolor="#7be957"] ;
232 -> 233 ;
234 [label="meters <= 143.5\ngini = 0.095\nsamples = 20\nvalue = [0, 0, 19, 0, 0, 0, 0, 0, 1]", fillcolor="#6ce643"] ;
233 -> 234 ;
235 [label="year <= 1963.0\ngini = 0.278\nsamples = 6\nvalue = [0, 0, 5, 0, 0, 0, 0, 0, 1]", fillcolor="#83ea61"] ;
234 -> 235 ;
236 [label="gini = 0.0\nsamples = 1\nvalue = [0, 0, 0, 0, 0, 0, 0, 0, 1]", fillcolor="#e53964"] ;
235 -> 236 ;
237 [label="gini = 0.0\nsamples = 5\nvalue = [0, 0, 5, 0, 0, 0, 0, 0, 0]", fillcolor="#64e539"] ;
235 -> 237 ;
238 [label="gini = 0.0\nsamples = 14\nvalue = [0, 0, 14, 0, 0, 0, 0, 0, 0]", fillcolor="#64e539"] ;
234 -> 238 ;
239 [label="meters <= 197.0\ngini = 0.444\nsamples = 3\nvalue = [0, 0, 1, 0, 0, 0, 0, 0, 2]", fillcolor="#f29cb2"] ;
233 -> 239 ;
240 [label="gini = 0.0\nsamples = 2\nvalue = [0, 0, 0, 0, 0, 0, 0, 0, 2]", fillcolor="#e53964"] ;
239 -> 240 ;
241 [label="gini = 0.0\nsamples = 1\nvalue = [0, 0, 1, 0, 0, 0, 0, 0, 0]", fillcolor="#64e539"] ;
239 -> 241 ;
242 [label="gini = 0.0\nsamples = 32\nvalue = [0, 0, 32, 0, 0, 0, 0, 0, 0]", fillcolor="#64e539"] ;
232 -> 242 ;
243 [label="gini = 0.0\nsamples = 1\nvalue = [0, 0, 0, 0, 1, 0, 0, 0, 0]", fillcolor="#39d7e5"] ;
229 -> 243 ;
244 [label="meters <= 310.0\ngini = 0.624\nsamples = 503\nvalue = [14, 55, 140, 1, 24, 0, 0, 1, 268]", fillcolor="#f6b9c8"] ;
228 -> 244 ;
245 [label="zipcode <= 41019.0\ngini = 0.544\nsamples = 417\nvalue = [13, 23, 94, 0, 24, 0, 0, 0, 263]", fillcolor="#f197ae"] ;
244 -> 245 ;
246 [label="zipcode <= 41010.5\ngini = 0.512\nsamples = 390\nvalue = [13, 22, 70, 0, 24, 0, 0, 0, 261]", fillcolor="#ef89a2"] ;
245 -> 246 ;
247 [label="year <= 1951.0\ngini = 0.636\nsamples = 223\nvalue = [10, 16, 58, 0, 21, 0, 0, 0, 118]", fillcolor="#f6b7c7"] ;
246 -> 247 ;
248 [label="zipcode <= 41004.5\ngini = 0.462\nsamples = 24\nvalue = [1, 4, 17, 0, 0, 0, 0, 0, 2]", fillcolor="#9aee7e"] ;
247 -> 248 ;
249 [label="garage <= 0.5\ngini = 0.602\nsamples = 16\nvalue = [1, 4, 9, 0, 0, 0, 0, 0, 2]", fillcolor="#bef4ac"] ;
248 -> 249 ;
250 [label="rooms <= 4.5\ngini = 0.5\nsamples = 14\nvalue = [1, 4, 9, 0, 0, 0, 0, 0, 0]", fillcolor="#b2f29c"] ;
249 -> 250 ;
251 [label="year <= 1945.0\ngini = 0.594\nsamples = 8\nvalue = [1, 4, 3, 0, 0, 0, 0, 0, 0]", fillcolor="#f7fad7"] ;
250 -> 251 ;
252 [label="year <= 1929.0\ngini = 0.49\nsamples = 7\nvalue = [0, 4, 3, 0, 0, 0, 0, 0, 0]", fillcolor="#f5f8ce"] ;
251 -> 252 ;
253 [label="price <= 528.625\ngini = 0.48\nsamples = 5\nvalue = [0, 2, 3, 0, 0, 0, 0, 0, 0]", fillcolor="#cbf6bd"] ;
252 -> 253 ;
254 [label="gini = 0.0\nsamples = 1\nvalue = [0, 1, 0, 0, 0, 0, 0, 0, 0]", fillcolor="#d7e539"] ;
253 -> 254 ;
255 [label="zipcode <= 41003.0\ngini = 0.375\nsamples = 4\nvalue = [0, 1, 3, 0, 0, 0, 0, 0, 0]", fillcolor="#98ee7b"] ;
253 -> 255 ;
256 [label="gini = 0.0\nsamples = 2\nvalue = [0, 0, 2, 0, 0, 0, 0, 0, 0]", fillcolor="#64e539"] ;
255 -> 256 ;
257 [label="meters <= 232.5\ngini = 0.5\nsamples = 2\nvalue = [0, 1, 1, 0, 0, 0, 0, 0, 0]", fillcolor="#ffffff"] ;
255 -> 257 ;
258 [label="gini = 0.0\nsamples = 1\nvalue = [0, 1, 0, 0, 0, 0, 0, 0, 0]", fillcolor="#d7e539"] ;
257 -> 258 ;
259 [label="gini = 0.0\nsamples = 1\nvalue = [0, 0, 1, 0, 0, 0, 0, 0, 0]", fillcolor="#64e539"] ;
257 -> 259 ;
260 [label="gini = 0.0\nsamples = 2\nvalue = [0, 2, 0, 0, 0, 0, 0, 0, 0]", fillcolor="#d7e539"] ;
252 -> 260 ;
261 [label="gini = 0.0\nsamples = 1\nvalue = [1, 0, 0, 0, 0, 0, 0, 0, 0]", fillcolor="#e58139"] ;
251 -> 261 ;
262 [label="gini = 0.0\nsamples = 6\nvalue = [0, 0, 6, 0, 0, 0, 0, 0, 0]", fillcolor="#64e539"] ;
250 -> 262 ;
263 [label="gini = 0.0\nsamples = 2\nvalue = [0, 0, 0, 0, 0, 0, 0, 0, 2]", fillcolor="#e53964"] ;
249 -> 263 ;
264 [label="gini = 0.0\nsamples = 8\nvalue = [0, 0, 8, 0, 0, 0, 0, 0, 0]", fillcolor="#64e539"] ;
248 -> 264 ;
265 [label="price <= 1150.0\ngini = 0.601\nsamples = 199\nvalue = [9, 12, 41, 0, 21, 0, 0, 0, 116]", fillcolor="#f3a1b5"] ;
247 -> 265 ;
266 [label="meters <= 292.0\ngini = 0.567\nsamples = 189\nvalue = [6, 9, 39, 0, 19, 0, 0, 0, 116]", fillcolor="#f299af"] ;
265 -> 266 ;
267 [label="terrace <= 0.5\ngini = 0.55\nsamples = 184\nvalue = [6, 9, 38, 0, 15, 0, 0, 0, 116]", fillcolor="#f195ac"] ;
266 -> 267 ;
268 [label="zipcode <= 41005.5\ngini = 0.396\nsamples = 76\nvalue = [1, 4, 10, 0, 3, 0, 0, 0, 58]", fillcolor="#ec6f8e"] ;
267 -> 268 ;
269 [label="meters <= 198.5\ngini = 0.156\nsamples = 47\nvalue = [0, 0, 4, 0, 0, 0, 0, 0, 43]", fillcolor="#e74b72"] ;
268 -> 269 ;
270 [label="gini = 0.0\nsamples = 36\nvalue = [0, 0, 0, 0, 0, 0, 0, 0, 36]", fillcolor="#e53964"] ;
269 -> 270 ;
271 [label="meters <= 215.0\ngini = 0.463\nsamples = 11\nvalue = [0, 0, 4, 0, 0, 0, 0, 0, 7]", fillcolor="#f4aabd"] ;
269 -> 271 ;
272 [label="gini = 0.0\nsamples = 2\nvalue = [0, 0, 2, 0, 0, 0, 0, 0, 0]", fillcolor="#64e539"] ;
271 -> 272 ;
273 [label="year <= 1971.0\ngini = 0.346\nsamples = 9\nvalue = [0, 0, 2, 0, 0, 0, 0, 0, 7]", fillcolor="#ec7290"] ;
271 -> 273 ;
274 [label="rooms <= 7.5\ngini = 0.219\nsamples = 8\nvalue = [0, 0, 1, 0, 0, 0, 0, 0, 7]", fillcolor="#e9557a"] ;
273 -> 274 ;
275 [label="gini = 0.0\nsamples = 6\nvalue = [0, 0, 0, 0, 0, 0, 0, 0, 6]", fillcolor="#e53964"] ;
274 -> 275 ;
276 [label="meters <= 246.0\ngini = 0.5\nsamples = 2\nvalue = [0, 0, 1, 0, 0, 0, 0, 0, 1]", fillcolor="#ffffff"] ;
274 -> 276 ;
277 [label="gini = 0.0\nsamples = 1\nvalue = [0, 0, 0, 0, 0, 0, 0, 0, 1]", fillcolor="#e53964"] ;
276 -> 277 ;
278 [label="gini = 0.0\nsamples = 1\nvalue = [0, 0, 1, 0, 0, 0, 0, 0, 0]", fillcolor="#64e539"] ;
276 -> 278 ;
279 [label="gini = 0.0\nsamples = 1\nvalue = [0, 0, 1, 0, 0, 0, 0, 0, 0]", fillcolor="#64e539"] ;
273 -> 279 ;
280 [label="meters <= 180.5\ngini = 0.659\nsamples = 29\nvalue = [1, 4, 6, 0, 3, 0, 0, 0, 15]", fillcolor="#f5b2c2"] ;
268 -> 280 ;
281 [label="garage <= 0.5\ngini = 0.582\nsamples = 25\nvalue = [1, 1, 5, 0, 3, 0, 0, 0, 15]", fillcolor="#f29cb2"] ;
280 -> 281 ;
282 [label="price <= 475.555\ngini = 0.364\nsamples = 18\nvalue = [0, 1, 3, 0, 0, 0, 0, 0, 14]", fillcolor="#ec6e8d"] ;
281 -> 282 ;
283 [label="rooms <= 4.5\ngini = 0.24\nsamples = 15\nvalue = [0, 1, 1, 0, 0, 0, 0, 0, 13]", fillcolor="#e9557a"] ;
282 -> 283 ;
284 [label="year <= 1959.5\ngini = 0.142\nsamples = 13\nvalue = [0, 1, 0, 0, 0, 0, 0, 0, 12]", fillcolor="#e74971"] ;
283 -> 284 ;
285 [label="year <= 1954.5\ngini = 0.5\nsamples = 2\nvalue = [0, 1, 0, 0, 0, 0, 0, 0, 1]", fillcolor="#ffffff"] ;
284 -> 285 ;
286 [label="gini = 0.0\nsamples = 1\nvalue = [0, 0, 0, 0, 0, 0, 0, 0, 1]", fillcolor="#e53964"] ;
285 -> 286 ;
287 [label="gini = 0.0\nsamples = 1\nvalue = [0, 1, 0, 0, 0, 0, 0, 0, 0]", fillcolor="#d7e539"] ;
285 -> 287 ;
288 [label="gini = 0.0\nsamples = 11\nvalue = [0, 0, 0, 0, 0, 0, 0, 0, 11]", fillcolor="#e53964"] ;
284 -> 288 ;
289 [label="price <= 386.839\ngini = 0.5\nsamples = 2\nvalue = [0, 0, 1, 0, 0, 0, 0, 0, 1]", fillcolor="#ffffff"] ;
283 -> 289 ;
290 [label="gini = 0.0\nsamples = 1\nvalue = [0, 0, 1, 0, 0, 0, 0, 0, 0]", fillcolor="#64e539"] ;
289 -> 290 ;
291 [label="gini = 0.0\nsamples = 1\nvalue = [0, 0, 0, 0, 0, 0, 0, 0, 1]", fillcolor="#e53964"] ;
289 -> 291 ;
292 [label="meters <= 141.5\ngini = 0.444\nsamples = 3\nvalue = [0, 0, 2, 0, 0, 0, 0, 0, 1]", fillcolor="#b2f29c"] ;
282 -> 292 ;
293 [label="gini = 0.0\nsamples = 1\nvalue = [0, 0, 0, 0, 0, 0, 0, 0, 1]", fillcolor="#e53964"] ;
292 -> 293 ;
294 [label="gini = 0.0\nsamples = 2\nvalue = [0, 0, 2, 0, 0, 0, 0, 0, 0]", fillcolor="#64e539"] ;
292 -> 294 ;
295 [label="zipcode <= 41007.5\ngini = 0.694\nsamples = 7\nvalue = [1, 0, 2, 0, 3, 0, 0, 0, 1]", fillcolor="#d7f7fa"] ;
281 -> 295 ;
296 [label="gini = 0.0\nsamples = 2\nvalue = [0, 0, 2, 0, 0, 0, 0, 0, 0]", fillcolor="#64e539"] ;
295 -> 296 ;
297 [label="rooms <= 3.5\ngini = 0.56\nsamples = 5\nvalue = [1, 0, 0, 0, 3, 0, 0, 0, 1]", fillcolor="#9cebf2"] ;
295 -> 297 ;
298 [label="zipcode <= 41009.5\ngini = 0.375\nsamples = 4\nvalue = [0, 0, 0, 0, 3, 0, 0, 0, 1]", fillcolor="#7be4ee"] ;
297 -> 298 ;
299 [label="bathrooms <= 2.5\ngini = 0.5\nsamples = 2\nvalue = [0, 0, 0, 0, 1, 0, 0, 0, 1]", fillcolor="#ffffff"] ;
298 -> 299 ;
300 [label="gini = 0.0\nsamples = 1\nvalue = [0, 0, 0, 0, 0, 0, 0, 0, 1]", fillcolor="#e53964"] ;
299 -> 300 ;
301 [label="gini = 0.0\nsamples = 1\nvalue = [0, 0, 0, 0, 1, 0, 0, 0, 0]", fillcolor="#39d7e5"] ;
299 -> 301 ;
302 [label="gini = 0.0\nsamples = 2\nvalue = [0, 0, 0, 0, 2, 0, 0, 0, 0]", fillcolor="#39d7e5"] ;
298 -> 302 ;
303 [label="gini = 0.0\nsamples = 1\nvalue = [1, 0, 0, 0, 0, 0, 0, 0, 0]", fillcolor="#e58139"] ;
297 -> 303 ;
304 [label="rooms <= 4.5\ngini = 0.375\nsamples = 4\nvalue = [0, 3, 1, 0, 0, 0, 0, 0, 0]", fillcolor="#e4ee7b"] ;
280 -> 304 ;
305 [label="gini = 0.0\nsamples = 3\nvalue = [0, 3, 0, 0, 0, 0, 0, 0, 0]", fillcolor="#d7e539"] ;
304 -> 305 ;
306 [label="gini = 0.0\nsamples = 1\nvalue = [0, 0, 1, 0, 0, 0, 0, 0, 0]", fillcolor="#64e539"] ;
304 -> 306 ;
307 [label="year <= 1996.5\ngini = 0.628\nsamples = 108\nvalue = [5, 5, 28, 0, 12, 0, 0, 0, 58]", fillcolor="#f5b5c5"] ;
267 -> 307 ;
308 [label="rooms <= 7.5\ngini = 0.575\nsamples = 96\nvalue = [4, 3, 24, 0, 8, 0, 0, 0, 57]", fillcolor="#f3a4b8"] ;
307 -> 308 ;
309 [label="meters <= 125.5\ngini = 0.558\nsamples = 94\nvalue = [4, 1, 24, 0, 8, 0, 0, 0, 57]", fillcolor="#f3a2b6"] ;
308 -> 309 ;
310 [label="year <= 1982.5\ngini = 0.444\nsamples = 3\nvalue = [1, 0, 0, 0, 2, 0, 0, 0, 0]", fillcolor="#9cebf2"] ;
309 -> 310 ;
311 [label="gini = 0.0\nsamples = 2\nvalue = [0, 0, 0, 0, 2, 0, 0, 0, 0]", fillcolor="#39d7e5"] ;
310 -> 311 ;
312 [label="gini = 0.0\nsamples = 1\nvalue = [1, 0, 0, 0, 0, 0, 0, 0, 0]", fillcolor="#e58139"] ;
310 -> 312 ;
313 [label="year <= 1964.0\ngini = 0.533\nsamples = 91\nvalue = [3, 1, 24, 0, 6, 0, 0, 0, 57]", fillcolor="#f29db3"] ;
309 -> 313 ;
314 [label="rooms <= 3.5\ngini = 0.618\nsamples = 59\nvalue = [3, 1, 18, 0, 6, 0, 0, 0, 31]", fillcolor="#f7c0ce"] ;
313 -> 314 ;
315 [label="meters <= 146.5\ngini = 0.494\nsamples = 9\nvalue = [0, 0, 6, 0, 2, 0, 0, 0, 1]", fillcolor="#a6f08e"] ;
314 -> 315 ;
316 [label="price <= 398.75\ngini = 0.64\nsamples = 5\nvalue = [0, 0, 2, 0, 2, 0, 0, 0, 1]", fillcolor="#ffffff"] ;
315 -> 316 ;
317 [label="price <= 257.0\ngini = 0.444\nsamples = 3\nvalue = [0, 0, 1, 0, 2, 0, 0, 0, 0]", fillcolor="#9cebf2"] ;
316 -> 317 ;
318 [label="gini = 0.0\nsamples = 1\nvalue = [0, 0, 1, 0, 0, 0, 0, 0, 0]", fillcolor="#64e539"] ;
317 -> 318 ;
319 [label="gini = 0.0\nsamples = 2\nvalue = [0, 0, 0, 0, 2, 0, 0, 0, 0]", fillcolor="#39d7e5"] ;
317 -> 319 ;
320 [label="bathrooms <= 2.5\ngini = 0.5\nsamples = 2\nvalue = [0, 0, 1, 0, 0, 0, 0, 0, 1]", fillcolor="#ffffff"] ;
316 -> 320 ;
321 [label="gini = 0.0\nsamples = 1\nvalue = [0, 0, 0, 0, 0, 0, 0, 0, 1]", fillcolor="#e53964"] ;
320 -> 321 ;
322 [label="gini = 0.0\nsamples = 1\nvalue = [0, 0, 1, 0, 0, 0, 0, 0, 0]", fillcolor="#64e539"] ;
320 -> 322 ;
323 [label="gini = 0.0\nsamples = 4\nvalue = [0, 0, 4, 0, 0, 0, 0, 0, 0]", fillcolor="#64e539"] ;
315 -> 323 ;
324 [label="bathrooms <= 1.5\ngini = 0.572\nsamples = 50\nvalue = [3, 1, 12, 0, 4, 0, 0, 0, 30]", fillcolor="#f3a1b6"] ;
314 -> 324 ;
325 [label="gini = 0.0\nsamples = 2\nvalue = [0, 0, 2, 0, 0, 0, 0, 0, 0]", fillcolor="#64e539"] ;
324 -> 325 ;
326 [label="zipcode <= 41002.5\ngini = 0.555\nsamples = 48\nvalue = [3, 1, 10, 0, 4, 0, 0, 0, 30]", fillcolor="#f197ad"] ;
324 -> 326 ;
327 [label="price <= 525.0\ngini = 0.675\nsamples = 13\nvalue = [3, 0, 1, 0, 3, 0, 0, 0, 6]", fillcolor="#f7c4d0"] ;
326 -> 327 ;
328 [label="meters <= 133.0\ngini = 0.375\nsamples = 4\nvalue = [0, 0, 0, 0, 3, 0, 0, 0, 1]", fillcolor="#7be4ee"] ;
327 -> 328 ;
329 [label="gini = 0.0\nsamples = 1\nvalue = [0, 0, 0, 0, 0, 0, 0, 0, 1]", fillcolor="#e53964"] ;
328 -> 329 ;
330 [label="gini = 0.0\nsamples = 3\nvalue = [0, 0, 0, 0, 3, 0, 0, 0, 0]", fillcolor="#39d7e5"] ;
328 -> 330 ;
331 [label="meters <= 167.5\ngini = 0.568\nsamples = 9\nvalue = [3, 0, 1, 0, 0, 0, 0, 0, 5]", fillcolor="#f6bdcb"] ;
327 -> 331 ;
332 [label="gini = 0.0\nsamples = 2\nvalue = [2, 0, 0, 0, 0, 0, 0, 0, 0]", fillcolor="#e58139"] ;
331 -> 332 ;
333 [label="price <= 920.0\ngini = 0.449\nsamples = 7\nvalue = [1, 0, 1, 0, 0, 0, 0, 0, 5]", fillcolor="#ee7b98"] ;
331 -> 333 ;
334 [label="price <= 814.5\ngini = 0.278\nsamples = 6\nvalue = [0, 0, 1, 0, 0, 0, 0, 0, 5]", fillcolor="#ea6183"] ;
333 -> 334 ;
335 [label="gini = 0.0\nsamples = 3\nvalue = [0, 0, 0, 0, 0, 0, 0, 0, 3]", fillcolor="#e53964"] ;
334 -> 335 ;
336 [label="rooms <= 4.5\ngini = 0.444\nsamples = 3\nvalue = [0, 0, 1, 0, 0, 0, 0, 0, 2]", fillcolor="#f29cb2"] ;
334 -> 336 ;
337 [label="gini = 0.0\nsamples = 2\nvalue = [0, 0, 0, 0, 0, 0, 0, 0, 2]", fillcolor="#e53964"] ;
336 -> 337 ;
338 [label="gini = 0.0\nsamples = 1\nvalue = [0, 0, 1, 0, 0, 0, 0, 0, 0]", fillcolor="#64e539"] ;
336 -> 338 ;
339 [label="gini = 0.0\nsamples = 1\nvalue = [1, 0, 0, 0, 0, 0, 0, 0, 0]", fillcolor="#e58139"] ;
333 -> 339 ;
340 [label="price <= 510.0\ngini = 0.462\nsamples = 35\nvalue = [0, 1, 9, 0, 1, 0, 0, 0, 24]", fillcolor="#f08da6"] ;
326 -> 340 ;
341 [label="meters <= 180.5\ngini = 0.535\nsamples = 27\nvalue = [0, 1, 9, 0, 1, 0, 0, 0, 16]", fillcolor="#f5b2c3"] ;
340 -> 341 ;
342 [label="bathrooms <= 2.5\ngini = 0.364\nsamples = 18\nvalue = [0, 0, 3, 0, 1, 0, 0, 0, 14]", fillcolor="#ec6e8d"] ;
341 -> 342 ;
343 [label="price <= 497.5\ngini = 0.291\nsamples = 17\nvalue = [0, 0, 3, 0, 0, 0, 0, 0, 14]", fillcolor="#eb6385"] ;
342 -> 343 ;
344 [label="meters <= 152.0\ngini = 0.219\nsamples = 16\nvalue = [0, 0, 2, 0, 0, 0, 0, 0, 14]", fillcolor="#e9557a"] ;
343 -> 344 ;
345 [label="gini = 0.0\nsamples = 10\nvalue = [0, 0, 0, 0, 0, 0, 0, 0, 10]", fillcolor="#e53964"] ;
344 -> 345 ;
346 [label="price <= 329.325\ngini = 0.444\nsamples = 6\nvalue = [0, 0, 2, 0, 0, 0, 0, 0, 4]", fillcolor="#f29cb2"] ;
344 -> 346 ;
347 [label="gini = 0.0\nsamples = 2\nvalue = [0, 0, 2, 0, 0, 0, 0, 0, 0]", fillcolor="#64e539"] ;
346 -> 347 ;
348 [label="gini = 0.0\nsamples = 4\nvalue = [0, 0, 0, 0, 0, 0, 0, 0, 4]", fillcolor="#e53964"] ;
346 -> 348 ;
349 [label="gini = 0.0\nsamples = 1\nvalue = [0, 0, 1, 0, 0, 0, 0, 0, 0]", fillcolor="#64e539"] ;
343 -> 349 ;
350 [label="gini = 0.0\nsamples = 1\nvalue = [0, 0, 0, 0, 1, 0, 0, 0, 0]", fillcolor="#39d7e5"] ;
342 -> 350 ;
351 [label="price <= 380.5\ngini = 0.494\nsamples = 9\nvalue = [0, 1, 6, 0, 0, 0, 0, 0, 2]", fillcolor="#a6f08e"] ;
341 -> 351 ;
352 [label="gini = 0.0\nsamples = 1\nvalue = [0, 1, 0, 0, 0, 0, 0, 0, 0]", fillcolor="#d7e539"] ;
351 -> 352 ;
353 [label="price <= 452.0\ngini = 0.375\nsamples = 8\nvalue = [0, 0, 6, 0, 0, 0, 0, 0, 2]", fillcolor="#98ee7b"] ;
351 -> 353 ;
354 [label="gini = 0.0\nsamples = 5\nvalue = [0, 0, 5, 0, 0, 0, 0, 0, 0]", fillcolor="#64e539"] ;
353 -> 354 ;
355 [label="meters <= 192.5\ngini = 0.444\nsamples = 3\nvalue = [0, 0, 1, 0, 0, 0, 0, 0, 2]", fillcolor="#f29cb2"] ;
353 -> 355 ;
356 [label="gini = 0.0\nsamples = 1\nvalue = [0, 0, 1, 0, 0, 0, 0, 0, 0]", fillcolor="#64e539"] ;
355 -> 356 ;
357 [label="gini = 0.0\nsamples = 2\nvalue = [0, 0, 0, 0, 0, 0, 0, 0, 2]", fillcolor="#e53964"] ;
355 -> 357 ;
358 [label="gini = 0.0\nsamples = 8\nvalue = [0, 0, 0, 0, 0, 0, 0, 0, 8]", fillcolor="#e53964"] ;
340 -> 358 ;
359 [label="year <= 1986.5\ngini = 0.305\nsamples = 32\nvalue = [0, 0, 6, 0, 0, 0, 0, 0, 26]", fillcolor="#eb6788"] ;
313 -> 359 ;
360 [label="year <= 1979.5\ngini = 0.083\nsamples = 23\nvalue = [0, 0, 1, 0, 0, 0, 0, 0, 22]", fillcolor="#e6426b"] ;
359 -> 360 ;
361 [label="gini = 0.0\nsamples = 16\nvalue = [0, 0, 0, 0, 0, 0, 0, 0, 16]", fillcolor="#e53964"] ;
360 -> 361 ;
362 [label="meters <= 199.5\ngini = 0.245\nsamples = 7\nvalue = [0, 0, 1, 0, 0, 0, 0, 0, 6]", fillcolor="#e95a7e"] ;
360 -> 362 ;
363 [label="zipcode <= 41004.5\ngini = 0.5\nsamples = 2\nvalue = [0, 0, 1, 0, 0, 0, 0, 0, 1]", fillcolor="#ffffff"] ;
362 -> 363 ;
364 [label="gini = 0.0\nsamples = 1\nvalue = [0, 0, 1, 0, 0, 0, 0, 0, 0]", fillcolor="#64e539"] ;
363 -> 364 ;
365 [label="gini = 0.0\nsamples = 1\nvalue = [0, 0, 0, 0, 0, 0, 0, 0, 1]", fillcolor="#e53964"] ;
363 -> 365 ;
366 [label="gini = 0.0\nsamples = 5\nvalue = [0, 0, 0, 0, 0, 0, 0, 0, 5]", fillcolor="#e53964"] ;
362 -> 366 ;
367 [label="rooms <= 5.0\ngini = 0.494\nsamples = 9\nvalue = [0, 0, 5, 0, 0, 0, 0, 0, 4]", fillcolor="#e0fad7"] ;
359 -> 367 ;
368 [label="meters <= 126.5\ngini = 0.444\nsamples = 6\nvalue = [0, 0, 2, 0, 0, 0, 0, 0, 4]", fillcolor="#f29cb2"] ;
367 -> 368 ;
369 [label="gini = 0.0\nsamples = 2\nvalue = [0, 0, 2, 0, 0, 0, 0, 0, 0]", fillcolor="#64e539"] ;
368 -> 369 ;
370 [label="gini = 0.0\nsamples = 4\nvalue = [0, 0, 0, 0, 0, 0, 0, 0, 4]", fillcolor="#e53964"] ;
368 -> 370 ;
371 [label="gini = 0.0\nsamples = 3\nvalue = [0, 0, 3, 0, 0, 0, 0, 0, 0]", fillcolor="#64e539"] ;
367 -> 371 ;
372 [label="gini = 0.0\nsamples = 2\nvalue = [0, 2, 0, 0, 0, 0, 0, 0, 0]", fillcolor="#d7e539"] ;
308 -> 372 ;
373 [label="zipcode <= 41002.5\ngini = 0.736\nsamples = 12\nvalue = [1, 2, 4, 0, 4, 0, 0, 0, 1]", fillcolor="#ffffff"] ;
307 -> 373 ;
374 [label="rooms <= 5.0\ngini = 0.5\nsamples = 6\nvalue = [0, 1, 1, 0, 4, 0, 0, 0, 0]", fillcolor="#88e7ef"] ;
373 -> 374 ;
375 [label="gini = 0.0\nsamples = 4\nvalue = [0, 0, 0, 0, 4, 0, 0, 0, 0]", fillcolor="#39d7e5"] ;
374 -> 375 ;
376 [label="garage <= 0.5\ngini = 0.5\nsamples = 2\nvalue = [0, 1, 1, 0, 0, 0, 0, 0, 0]", fillcolor="#ffffff"] ;
374 -> 376 ;
377 [label="gini = 0.0\nsamples = 1\nvalue = [0, 0, 1, 0, 0, 0, 0, 0, 0]", fillcolor="#64e539"] ;
376 -> 377 ;
378 [label="gini = 0.0\nsamples = 1\nvalue = [0, 1, 0, 0, 0, 0, 0, 0, 0]", fillcolor="#d7e539"] ;
376 -> 378 ;
379 [label="rooms <= 3.5\ngini = 0.667\nsamples = 6\nvalue = [1, 1, 3, 0, 0, 0, 0, 0, 1]", fillcolor="#c1f5b0"] ;
373 -> 379 ;
380 [label="meters <= 128.5\ngini = 0.375\nsamples = 4\nvalue = [0, 0, 3, 0, 0, 0, 0, 0, 1]", fillcolor="#98ee7b"] ;
379 -> 380 ;
381 [label="gini = 0.0\nsamples = 1\nvalue = [0, 0, 0, 0, 0, 0, 0, 0, 1]", fillcolor="#e53964"] ;
380 -> 381 ;
382 [label="gini = 0.0\nsamples = 3\nvalue = [0, 0, 3, 0, 0, 0, 0, 0, 0]", fillcolor="#64e539"] ;
380 -> 382 ;
383 [label="year <= 2007.5\ngini = 0.5\nsamples = 2\nvalue = [1, 1, 0, 0, 0, 0, 0, 0, 0]", fillcolor="#ffffff"] ;
379 -> 383 ;
384 [label="gini = 0.0\nsamples = 1\nvalue = [1, 0, 0, 0, 0, 0, 0, 0, 0]", fillcolor="#e58139"] ;
383 -> 384 ;
385 [label="gini = 0.0\nsamples = 1\nvalue = [0, 1, 0, 0, 0, 0, 0, 0, 0]", fillcolor="#d7e539"] ;
383 -> 385 ;
386 [label="year <= 1968.5\ngini = 0.32\nsamples = 5\nvalue = [0, 0, 1, 0, 4, 0, 0, 0, 0]", fillcolor="#6ae1ec"] ;
266 -> 386 ;
387 [label="gini = 0.0\nsamples = 4\nvalue = [0, 0, 0, 0, 4, 0, 0, 0, 0]", fillcolor="#39d7e5"] ;
386 -> 387 ;
388 [label="gini = 0.0\nsamples = 1\nvalue = [0, 0, 1, 0, 0, 0, 0, 0, 0]", fillcolor="#64e539"] ;
386 -> 388 ;
389 [label="zipcode <= 41001.5\ngini = 0.74\nsamples = 10\nvalue = [3, 3, 2, 0, 2, 0, 0, 0, 0]", fillcolor="#ffffff"] ;
265 -> 389 ;
390 [label="rooms <= 5.5\ngini = 0.375\nsamples = 4\nvalue = [0, 3, 1, 0, 0, 0, 0, 0, 0]", fillcolor="#e4ee7b"] ;
389 -> 390 ;
391 [label="gini = 0.0\nsamples = 3\nvalue = [0, 3, 0, 0, 0, 0, 0, 0, 0]", fillcolor="#d7e539"] ;
390 -> 391 ;
392 [label="gini = 0.0\nsamples = 1\nvalue = [0, 0, 1, 0, 0, 0, 0, 0, 0]", fillcolor="#64e539"] ;
390 -> 392 ;
393 [label="year <= 2013.5\ngini = 0.611\nsamples = 6\nvalue = [3, 0, 1, 0, 2, 0, 0, 0, 0]", fillcolor="#f8e0ce"] ;
389 -> 393 ;
394 [label="terrace <= 0.5\ngini = 0.375\nsamples = 4\nvalue = [3, 0, 1, 0, 0, 0, 0, 0, 0]", fillcolor="#eeab7b"] ;
393 -> 394 ;
395 [label="gini = 0.0\nsamples = 1\nvalue = [0, 0, 1, 0, 0, 0, 0, 0, 0]", fillcolor="#64e539"] ;
394 -> 395 ;
396 [label="gini = 0.0\nsamples = 3\nvalue = [3, 0, 0, 0, 0, 0, 0, 0, 0]", fillcolor="#e58139"] ;
394 -> 396 ;
397 [label="gini = 0.0\nsamples = 2\nvalue = [0, 0, 0, 0, 2, 0, 0, 0, 0]", fillcolor="#39d7e5"] ;
393 -> 397 ;
398 [label="zipcode <= 41011.5\ngini = 0.26\nsamples = 167\nvalue = [3, 6, 12, 0, 3, 0, 0, 0, 143]", fillcolor="#e9587c"] ;
246 -> 398 ;
399 [label="rooms <= 2.5\ngini = 0.047\nsamples = 83\nvalue = [2, 0, 0, 0, 0, 0, 0, 0, 81]", fillcolor="#e63e68"] ;
398 -> 399 ;
400 [label="gini = 0.0\nsamples = 1\nvalue = [1, 0, 0, 0, 0, 0, 0, 0, 0]", fillcolor="#e58139"] ;
399 -> 400 ;
401 [label="year <= 1976.5\ngini = 0.024\nsamples = 82\nvalue = [1, 0, 0, 0, 0, 0, 0, 0, 81]", fillcolor="#e53b66"] ;
399 -> 401 ;
402 [label="gini = 0.0\nsamples = 74\nvalue = [0, 0, 0, 0, 0, 0, 0, 0, 74]", fillcolor="#e53964"] ;
401 -> 402 ;
403 [label="price <= 507.5\ngini = 0.219\nsamples = 8\nvalue = [1, 0, 0, 0, 0, 0, 0, 0, 7]", fillcolor="#e9557a"] ;
401 -> 403 ;
404 [label="gini = 0.0\nsamples = 7\nvalue = [0, 0, 0, 0, 0, 0, 0, 0, 7]", fillcolor="#e53964"] ;
403 -> 404 ;
405 [label="gini = 0.0\nsamples = 1\nvalue = [1, 0, 0, 0, 0, 0, 0, 0, 0]", fillcolor="#e58139"] ;
403 -> 405 ;
406 [label="meters <= 199.0\ngini = 0.428\nsamples = 84\nvalue = [1, 6, 12, 0, 3, 0, 0, 0, 62]", fillcolor="#ed7593"] ;
398 -> 406 ;
407 [label="rooms <= 2.5\ngini = 0.229\nsamples = 64\nvalue = [1, 2, 4, 0, 1, 0, 0, 0, 56]", fillcolor="#e85379"] ;
406 -> 407 ;
408 [label="price <= 375.0\ngini = 0.48\nsamples = 5\nvalue = [0, 0, 2, 0, 0, 0, 0, 0, 3]", fillcolor="#f6bdcb"] ;
407 -> 408 ;
409 [label="gini = 0.0\nsamples = 3\nvalue = [0, 0, 0, 0, 0, 0, 0, 0, 3]", fillcolor="#e53964"] ;
408 -> 409 ;
410 [label="gini = 0.0\nsamples = 2\nvalue = [0, 0, 2, 0, 0, 0, 0, 0, 0]", fillcolor="#64e539"] ;
408 -> 410 ;
411 [label="bathrooms <= 1.5\ngini = 0.19\nsamples = 59\nvalue = [1, 2, 2, 0, 1, 0, 0, 0, 53]", fillcolor="#e84e74"] ;
407 -> 411 ;
412 [label="garage <= 0.5\ngini = 0.56\nsamples = 5\nvalue = [0, 1, 1, 0, 0, 0, 0, 0, 3]", fillcolor="#f29cb2"] ;
411 -> 412 ;
413 [label="gini = 0.0\nsamples = 3\nvalue = [0, 0, 0, 0, 0, 0, 0, 0, 3]", fillcolor="#e53964"] ;
412 -> 413 ;
414 [label="zipcode <= 41013.0\ngini = 0.5\nsamples = 2\nvalue = [0, 1, 1, 0, 0, 0, 0, 0, 0]", fillcolor="#ffffff"] ;
412 -> 414 ;
415 [label="gini = 0.0\nsamples = 1\nvalue = [0, 0, 1, 0, 0, 0, 0, 0, 0]", fillcolor="#64e539"] ;
414 -> 415 ;
416 [label="gini = 0.0\nsamples = 1\nvalue = [0, 1, 0, 0, 0, 0, 0, 0, 0]", fillcolor="#d7e539"] ;
414 -> 416 ;
417 [label="rooms <= 6.5\ngini = 0.141\nsamples = 54\nvalue = [1, 1, 1, 0, 1, 0, 0, 0, 50]", fillcolor="#e74870"] ;
411 -> 417 ;
418 [label="meters <= 160.5\ngini = 0.111\nsamples = 52\nvalue = [1, 0, 1, 0, 1, 0, 0, 0, 49]", fillcolor="#e7456d"] ;
417 -> 418 ;
419 [label="meters <= 158.5\ngini = 0.238\nsamples = 23\nvalue = [1, 0, 1, 0, 1, 0, 0, 0, 20]", fillcolor="#e95479"] ;
418 -> 419 ;
420 [label="year <= 1964.5\ngini = 0.185\nsamples = 20\nvalue = [1, 0, 0, 0, 1, 0, 0, 0, 18]", fillcolor="#e84e74"] ;
419 -> 420 ;
421 [label="price <= 326.5\ngini = 0.406\nsamples = 8\nvalue = [1, 0, 0, 0, 1, 0, 0, 0, 6]", fillcolor="#ec7290"] ;
420 -> 421 ;
422 [label="meters <= 144.0\ngini = 0.278\nsamples = 6\nvalue = [1, 0, 0, 0, 0, 0, 0, 0, 5]", fillcolor="#ea6183"] ;
421 -> 422 ;
423 [label="gini = 0.0\nsamples = 4\nvalue = [0, 0, 0, 0, 0, 0, 0, 0, 4]", fillcolor="#e53964"] ;
422 -> 423 ;
424 [label="zipcode <= 41015.0\ngini = 0.5\nsamples = 2\nvalue = [1, 0, 0, 0, 0, 0, 0, 0, 1]", fillcolor="#ffffff"] ;
422 -> 424 ;
425 [label="gini = 0.0\nsamples = 1\nvalue = [0, 0, 0, 0, 0, 0, 0, 0, 1]", fillcolor="#e53964"] ;
424 -> 425 ;
426 [label="gini = 0.0\nsamples = 1\nvalue = [1, 0, 0, 0, 0, 0, 0, 0, 0]", fillcolor="#e58139"] ;
424 -> 426 ;
427 [label="rooms <= 5.0\ngini = 0.5\nsamples = 2\nvalue = [0, 0, 0, 0, 1, 0, 0, 0, 1]", fillcolor="#ffffff"] ;
421 -> 427 ;
428 [label="gini = 0.0\nsamples = 1\nvalue = [0, 0, 0, 0, 1, 0, 0, 0, 0]", fillcolor="#39d7e5"] ;
427 -> 428 ;
429 [label="gini = 0.0\nsamples = 1\nvalue = [0, 0, 0, 0, 0, 0, 0, 0, 1]", fillcolor="#e53964"] ;
427 -> 429 ;
430 [label="gini = 0.0\nsamples = 12\nvalue = [0, 0, 0, 0, 0, 0, 0, 0, 12]", fillcolor="#e53964"] ;
420 -> 430 ;
431 [label="bathrooms <= 2.5\ngini = 0.444\nsamples = 3\nvalue = [0, 0, 1, 0, 0, 0, 0, 0, 2]", fillcolor="#f29cb2"] ;
419 -> 431 ;
432 [label="gini = 0.0\nsamples = 1\nvalue = [0, 0, 1, 0, 0, 0, 0, 0, 0]", fillcolor="#64e539"] ;
431 -> 432 ;
433 [label="gini = 0.0\nsamples = 2\nvalue = [0, 0, 0, 0, 0, 0, 0, 0, 2]", fillcolor="#e53964"] ;
431 -> 433 ;
434 [label="gini = 0.0\nsamples = 29\nvalue = [0, 0, 0, 0, 0, 0, 0, 0, 29]", fillcolor="#e53964"] ;
418 -> 434 ;
435 [label="bathrooms <= 2.5\ngini = 0.5\nsamples = 2\nvalue = [0, 1, 0, 0, 0, 0, 0, 0, 1]", fillcolor="#ffffff"] ;
417 -> 435 ;
436 [label="gini = 0.0\nsamples = 1\nvalue = [0, 0, 0, 0, 0, 0, 0, 0, 1]", fillcolor="#e53964"] ;
435 -> 436 ;
437 [label="gini = 0.0\nsamples = 1\nvalue = [0, 1, 0, 0, 0, 0, 0, 0, 0]", fillcolor="#d7e539"] ;
435 -> 437 ;
438 [label="price <= 522.5\ngini = 0.7\nsamples = 20\nvalue = [0, 4, 8, 0, 2, 0, 0, 0, 6]", fillcolor="#e9fbe3"] ;
406 -> 438 ;
439 [label="bathrooms <= 2.5\ngini = 0.408\nsamples = 7\nvalue = [0, 2, 5, 0, 0, 0, 0, 0, 0]", fillcolor="#a2ef88"] ;
438 -> 439 ;
440 [label="price <= 250.25\ngini = 0.444\nsamples = 3\nvalue = [0, 2, 1, 0, 0, 0, 0, 0, 0]", fillcolor="#ebf29c"] ;
439 -> 440 ;
441 [label="gini = 0.0\nsamples = 1\nvalue = [0, 0, 1, 0, 0, 0, 0, 0, 0]", fillcolor="#64e539"] ;
440 -> 441 ;
442 [label="gini = 0.0\nsamples = 2\nvalue = [0, 2, 0, 0, 0, 0, 0, 0, 0]", fillcolor="#d7e539"] ;
440 -> 442 ;
443 [label="gini = 0.0\nsamples = 4\nvalue = [0, 0, 4, 0, 0, 0, 0, 0, 0]", fillcolor="#64e539"] ;
439 -> 443 ;
444 [label="price <= 597.9\ngini = 0.686\nsamples = 13\nvalue = [0, 2, 3, 0, 2, 0, 0, 0, 6]", fillcolor="#f7c4d0"] ;
438 -> 444 ;
445 [label="gini = 0.0\nsamples = 4\nvalue = [0, 0, 0, 0, 0, 0, 0, 0, 4]", fillcolor="#e53964"] ;
444 -> 445 ;
446 [label="terrace <= 0.5\ngini = 0.741\nsamples = 9\nvalue = [0, 2, 3, 0, 2, 0, 0, 0, 2]", fillcolor="#e9fbe3"] ;
444 -> 446 ;
447 [label="meters <= 260.0\ngini = 0.48\nsamples = 5\nvalue = [0, 0, 3, 0, 0, 0, 0, 0, 2]", fillcolor="#cbf6bd"] ;
446 -> 447 ;
448 [label="price <= 1030.0\ngini = 0.444\nsamples = 3\nvalue = [0, 0, 1, 0, 0, 0, 0, 0, 2]", fillcolor="#f29cb2"] ;
447 -> 448 ;
449 [label="gini = 0.0\nsamples = 2\nvalue = [0, 0, 0, 0, 0, 0, 0, 0, 2]", fillcolor="#e53964"] ;
448 -> 449 ;
450 [label="gini = 0.0\nsamples = 1\nvalue = [0, 0, 1, 0, 0, 0, 0, 0, 0]", fillcolor="#64e539"] ;
448 -> 450 ;
451 [label="gini = 0.0\nsamples = 2\nvalue = [0, 0, 2, 0, 0, 0, 0, 0, 0]", fillcolor="#64e539"] ;
447 -> 451 ;
452 [label="year <= 1945.5\ngini = 0.5\nsamples = 4\nvalue = [0, 2, 0, 0, 2, 0, 0, 0, 0]", fillcolor="#ffffff"] ;
446 -> 452 ;
453 [label="gini = 0.0\nsamples = 1\nvalue = [0, 1, 0, 0, 0, 0, 0, 0, 0]", fillcolor="#d7e539"] ;
452 -> 453 ;
454 [label="rooms <= 4.5\ngini = 0.444\nsamples = 3\nvalue = [0, 1, 0, 0, 2, 0, 0, 0, 0]", fillcolor="#9cebf2"] ;
452 -> 454 ;
455 [label="gini = 0.0\nsamples = 1\nvalue = [0, 1, 0, 0, 0, 0, 0, 0, 0]", fillcolor="#d7e539"] ;
454 -> 455 ;
456 [label="gini = 0.0\nsamples = 2\nvalue = [0, 0, 0, 0, 2, 0, 0, 0, 0]", fillcolor="#39d7e5"] ;
454 -> 456 ;
457 [label="price <= 242.0\ngini = 0.203\nsamples = 27\nvalue = [0, 1, 24, 0, 0, 0, 0, 0, 2]", fillcolor="#77e851"] ;
245 -> 457 ;
458 [label="year <= 1988.5\ngini = 0.444\nsamples = 3\nvalue = [0, 0, 1, 0, 0, 0, 0, 0, 2]", fillcolor="#f29cb2"] ;
457 -> 458 ;
459 [label="gini = 0.0\nsamples = 1\nvalue = [0, 0, 1, 0, 0, 0, 0, 0, 0]", fillcolor="#64e539"] ;
458 -> 459 ;
460 [label="gini = 0.0\nsamples = 2\nvalue = [0, 0, 0, 0, 0, 0, 0, 0, 2]", fillcolor="#e53964"] ;
458 -> 460 ;
461 [label="price <= 432.0\ngini = 0.08\nsamples = 24\nvalue = [0, 1, 23, 0, 0, 0, 0, 0, 0]", fillcolor="#6be642"] ;
457 -> 461 ;
462 [label="gini = 0.0\nsamples = 22\nvalue = [0, 0, 22, 0, 0, 0, 0, 0, 0]", fillcolor="#64e539"] ;
461 -> 462 ;
463 [label="price <= 554.5\ngini = 0.5\nsamples = 2\nvalue = [0, 1, 1, 0, 0, 0, 0, 0, 0]", fillcolor="#ffffff"] ;
461 -> 463 ;
464 [label="gini = 0.0\nsamples = 1\nvalue = [0, 1, 0, 0, 0, 0, 0, 0, 0]", fillcolor="#d7e539"] ;
463 -> 464 ;
465 [label="gini = 0.0\nsamples = 1\nvalue = [0, 0, 1, 0, 0, 0, 0, 0, 0]", fillcolor="#64e539"] ;
463 -> 465 ;
466 [label="bathrooms <= 3.5\ngini = 0.572\nsamples = 86\nvalue = [1, 32, 46, 1, 0, 0, 0, 1, 5]", fillcolor="#d7f8cc"] ;
244 -> 466 ;
467 [label="meters <= 1750.0\ngini = 0.445\nsamples = 32\nvalue = [1, 6, 23, 1, 0, 0, 0, 0, 1]", fillcolor="#9aee7e"] ;
466 -> 467 ;
468 [label="meters <= 440.5\ngini = 0.41\nsamples = 31\nvalue = [1, 6, 23, 0, 0, 0, 0, 0, 1]", fillcolor="#96ed78"] ;
467 -> 468 ;
469 [label="meters <= 394.0\ngini = 0.49\nsamples = 24\nvalue = [1, 6, 16, 0, 0, 0, 0, 0, 1]", fillcolor="#a9f191"] ;
468 -> 469 ;
470 [label="price <= 812.5\ngini = 0.377\nsamples = 18\nvalue = [1, 2, 14, 0, 0, 0, 0, 0, 1]", fillcolor="#8bec6a"] ;
469 -> 470 ;
471 [label="rooms <= 2.5\ngini = 0.32\nsamples = 16\nvalue = [1, 2, 13, 0, 0, 0, 0, 0, 0]", fillcolor="#85eb63"] ;
470 -> 471 ;
472 [label="bathrooms <= 1.5\ngini = 0.5\nsamples = 2\nvalue = [0, 1, 1, 0, 0, 0, 0, 0, 0]", fillcolor="#ffffff"] ;
471 -> 472 ;
473 [label="gini = 0.0\nsamples = 1\nvalue = [0, 0, 1, 0, 0, 0, 0, 0, 0]", fillcolor="#64e539"] ;
472 -> 473 ;
474 [label="gini = 0.0\nsamples = 1\nvalue = [0, 1, 0, 0, 0, 0, 0, 0, 0]", fillcolor="#d7e539"] ;
472 -> 474 ;
475 [label="zipcode <= 41012.5\ngini = 0.255\nsamples = 14\nvalue = [1, 1, 12, 0, 0, 0, 0, 0, 0]", fillcolor="#7ce957"] ;
471 -> 475 ;
476 [label="gini = 0.0\nsamples = 7\nvalue = [0, 0, 7, 0, 0, 0, 0, 0, 0]", fillcolor="#64e539"] ;
475 -> 476 ;
477 [label="rooms <= 5.5\ngini = 0.449\nsamples = 7\nvalue = [1, 1, 5, 0, 0, 0, 0, 0, 0]", fillcolor="#98ee7b"] ;
475 -> 477 ;
478 [label="garage <= 0.5\ngini = 0.278\nsamples = 6\nvalue = [0, 1, 5, 0, 0, 0, 0, 0, 0]", fillcolor="#83ea61"] ;
477 -> 478 ;
479 [label="gini = 0.444\nsamples = 3\nvalue = [0, 1, 2, 0, 0, 0, 0, 0, 0]", fillcolor="#b2f29c"] ;
478 -> 479 ;
480 [label="gini = 0.0\nsamples = 3\nvalue = [0, 0, 3, 0, 0, 0, 0, 0, 0]", fillcolor="#64e539"] ;
478 -> 480 ;
481 [label="gini = 0.0\nsamples = 1\nvalue = [1, 0, 0, 0, 0, 0, 0, 0, 0]", fillcolor="#e58139"] ;
477 -> 481 ;
482 [label="rooms <= 4.5\ngini = 0.5\nsamples = 2\nvalue = [0, 0, 1, 0, 0, 0, 0, 0, 1]", fillcolor="#ffffff"] ;
470 -> 482 ;
483 [label="gini = 0.0\nsamples = 1\nvalue = [0, 0, 1, 0, 0, 0, 0, 0, 0]", fillcolor="#64e539"] ;
482 -> 483 ;
484 [label="gini = 0.0\nsamples = 1\nvalue = [0, 0, 0, 0, 0, 0, 0, 0, 1]", fillcolor="#e53964"] ;
482 -> 484 ;
485 [label="price <= 860.0\ngini = 0.444\nsamples = 6\nvalue = [0, 4, 2, 0, 0, 0, 0, 0, 0]", fillcolor="#ebf29c"] ;
469 -> 485 ;
486 [label="gini = 0.0\nsamples = 3\nvalue = [0, 3, 0, 0, 0, 0, 0, 0, 0]", fillcolor="#d7e539"] ;
485 -> 486 ;
487 [label="price <= 890.0\ngini = 0.444\nsamples = 3\nvalue = [0, 1, 2, 0, 0, 0, 0, 0, 0]", fillcolor="#b2f29c"] ;
485 -> 487 ;
488 [label="gini = 0.0\nsamples = 2\nvalue = [0, 0, 2, 0, 0, 0, 0, 0, 0]", fillcolor="#64e539"] ;
487 -> 488 ;
489 [label="gini = 0.0\nsamples = 1\nvalue = [0, 1, 0, 0, 0, 0, 0, 0, 0]", fillcolor="#d7e539"] ;
487 -> 489 ;
490 [label="gini = 0.0\nsamples = 7\nvalue = [0, 0, 7, 0, 0, 0, 0, 0, 0]", fillcolor="#64e539"] ;
468 -> 490 ;
491 [label="gini = 0.0\nsamples = 1\nvalue = [0, 0, 0, 1, 0, 0, 0, 0, 0]", fillcolor="#39e581"] ;
467 -> 491 ;
492 [label="bathrooms <= 5.5\ngini = 0.581\nsamples = 54\nvalue = [0, 26, 23, 0, 0, 0, 0, 1, 4]", fillcolor="#fbfcec"] ;
466 -> 492 ;
493 [label="zipcode <= 41011.5\ngini = 0.556\nsamples = 47\nvalue = [0, 26, 17, 0, 0, 0, 0, 0, 4]", fillcolor="#f3f7c4"] ;
492 -> 493 ;
494 [label="terrace <= 0.5\ngini = 0.594\nsamples = 35\nvalue = [0, 15, 16, 0, 0, 0, 0, 0, 4]", fillcolor="#f7fef5"] ;
493 -> 494 ;
495 [label="gini = 0.0\nsamples = 7\nvalue = [0, 0, 7, 0, 0, 0, 0, 0, 0]", fillcolor="#64e539"] ;
494 -> 495 ;
496 [label="year <= 2005.0\ngini = 0.589\nsamples = 28\nvalue = [0, 15, 9, 0, 0, 0, 0, 0, 4]", fillcolor="#f2f7c0"] ;
494 -> 496 ;
497 [label="zipcode <= 41008.5\ngini = 0.538\nsamples = 24\nvalue = [0, 15, 5, 0, 0, 0, 0, 0, 4]", fillcolor="#eaf197"] ;
496 -> 497 ;
498 [label="meters <= 371.5\ngini = 0.405\nsamples = 20\nvalue = [0, 15, 3, 0, 0, 0, 0, 0, 2]", fillcolor="#e3ed73"] ;
497 -> 498 ;
499 [label="rooms <= 6.5\ngini = 0.625\nsamples = 4\nvalue = [0, 1, 2, 0, 0, 0, 0, 0, 1]", fillcolor="#cbf6bd"] ;
498 -> 499 ;
500 [label="meters <= 342.5\ngini = 0.5\nsamples = 2\nvalue = [0, 1, 0, 0, 0, 0, 0, 0, 1]", fillcolor="#ffffff"] ;
499 -> 500 ;
501 [label="gini = 0.0\nsamples = 1\nvalue = [0, 1, 0, 0, 0, 0, 0, 0, 0]", fillcolor="#d7e539"] ;
500 -> 501 ;
502 [label="gini = 0.0\nsamples = 1\nvalue = [0, 0, 0, 0, 0, 0, 0, 0, 1]", fillcolor="#e53964"] ;
500 -> 502 ;
503 [label="gini = 0.0\nsamples = 2\nvalue = [0, 0, 2, 0, 0, 0, 0, 0, 0]", fillcolor="#64e539"] ;
499 -> 503 ;
504 [label="rooms <= 5.5\ngini = 0.227\nsamples = 16\nvalue = [0, 14, 1, 0, 0, 0, 0, 0, 1]", fillcolor="#dce853"] ;
498 -> 504 ;
505 [label="meters <= 516.5\ngini = 0.449\nsamples = 7\nvalue = [0, 5, 1, 0, 0, 0, 0, 0, 1]", fillcolor="#e4ee7b"] ;
504 -> 505 ;
506 [label="meters <= 457.0\ngini = 0.278\nsamples = 6\nvalue = [0, 5, 0, 0, 0, 0, 0, 0, 1]", fillcolor="#dfea61"] ;
505 -> 506 ;
507 [label="gini = 0.0\nsamples = 4\nvalue = [0, 4, 0, 0, 0, 0, 0, 0, 0]", fillcolor="#d7e539"] ;
506 -> 507 ;
508 [label="price <= 990.0\ngini = 0.5\nsamples = 2\nvalue = [0, 1, 0, 0, 0, 0, 0, 0, 1]", fillcolor="#ffffff"] ;
506 -> 508 ;
509 [label="gini = 0.0\nsamples = 1\nvalue = [0, 1, 0, 0, 0, 0, 0, 0, 0]", fillcolor="#d7e539"] ;
508 -> 509 ;
510 [label="gini = 0.0\nsamples = 1\nvalue = [0, 0, 0, 0, 0, 0, 0, 0, 1]", fillcolor="#e53964"] ;
508 -> 510 ;
511 [label="gini = 0.0\nsamples = 1\nvalue = [0, 0, 1, 0, 0, 0, 0, 0, 0]", fillcolor="#64e539"] ;
505 -> 511 ;
512 [label="gini = 0.0\nsamples = 9\nvalue = [0, 9, 0, 0, 0, 0, 0, 0, 0]", fillcolor="#d7e539"] ;
504 -> 512 ;
513 [label="year <= 1961.0\ngini = 0.5\nsamples = 4\nvalue = [0, 0, 2, 0, 0, 0, 0, 0, 2]", fillcolor="#ffffff"] ;
497 -> 513 ;
514 [label="gini = 0.0\nsamples = 2\nvalue = [0, 0, 2, 0, 0, 0, 0, 0, 0]", fillcolor="#64e539"] ;
513 -> 514 ;
515 [label="gini = 0.0\nsamples = 2\nvalue = [0, 0, 0, 0, 0, 0, 0, 0, 2]", fillcolor="#e53964"] ;
513 -> 515 ;
516 [label="gini = 0.0\nsamples = 4\nvalue = [0, 0, 4, 0, 0, 0, 0, 0, 0]", fillcolor="#64e539"] ;
496 -> 516 ;
517 [label="meters <= 666.0\ngini = 0.153\nsamples = 12\nvalue = [0, 11, 1, 0, 0, 0, 0, 0, 0]", fillcolor="#dbe74b"] ;
493 -> 517 ;
518 [label="gini = 0.0\nsamples = 10\nvalue = [0, 10, 0, 0, 0, 0, 0, 0, 0]", fillcolor="#d7e539"] ;
517 -> 518 ;
519 [label="meters <= 788.5\ngini = 0.5\nsamples = 2\nvalue = [0, 1, 1, 0, 0, 0, 0, 0, 0]", fillcolor="#ffffff"] ;
517 -> 519 ;
520 [label="gini = 0.0\nsamples = 1\nvalue = [0, 0, 1, 0, 0, 0, 0, 0, 0]", fillcolor="#64e539"] ;
519 -> 520 ;
521 [label="gini = 0.0\nsamples = 1\nvalue = [0, 1, 0, 0, 0, 0, 0, 0, 0]", fillcolor="#d7e539"] ;
519 -> 521 ;
522 [label="zipcode <= 41002.5\ngini = 0.245\nsamples = 7\nvalue = [0, 0, 6, 0, 0, 0, 0, 1, 0]", fillcolor="#7ee95a"] ;
492 -> 522 ;
523 [label="gini = 0.0\nsamples = 1\nvalue = [0, 0, 0, 0, 0, 0, 0, 1, 0]", fillcolor="#e539d7"] ;
522 -> 523 ;
524 [label="gini = 0.0\nsamples = 6\nvalue = [0, 0, 6, 0, 0, 0, 0, 0, 0]", fillcolor="#64e539"] ;
522 -> 524 ;
}